/*
 * Copyright (c) 2024 EdgeImpulse Inc.
 *
 * Generated by Edge Impulse and licensed under the applicable Edge Impulse
 * Terms of Service. Community and Professional Terms of Service
 * (https://docs.edgeimpulse.com/page/terms-of-service) or Enterprise Terms of
 * Service (https://docs.edgeimpulse.com/page/enterprise-terms-of-service),
 * according to your product plan subscription (the “License”).
 *
 * This software, documentation and other associated files (collectively referred
 * to as the “Software”) is a single SDK variation generated by the Edge Impulse
 * platform and requires an active paid Edge Impulse subscription to use this
 * Software for any purpose.
 *
 * You may NOT use this Software unless you have an active Edge Impulse subscription
 * that meets the eligibility requirements for the applicable License, subject to
 * your full and continued compliance with the terms and conditions of the License,
 * including without limitation any usage restrictions under the applicable License.
 *
 * If you do not have an active Edge Impulse product plan subscription, or if use
 * of this Software exceeds the usage limitations of your Edge Impulse product plan
 * subscription, you are not permitted to use this Software and must immediately
 * delete and erase all copies of this Software within your control or possession.
 * Edge Impulse reserves all rights and remedies available to enforce its rights.
 *
 * Unless required by applicable law or agreed to in writing, the Software is
 * distributed on an "AS IS" BASIS, WITHOUT WARRANTIES OR CONDITIONS OF ANY KIND,
 * either express or implied. See the License for the specific language governing
 * permissions, disclaimers and limitations under the License.
 */
// Generated on: 31.12.2024 12:13:58

#include <stdio.h>
#include <stdlib.h>
#include "edge-impulse-sdk/tensorflow/lite/c/builtin_op_data.h"
#include "edge-impulse-sdk/tensorflow/lite/c/common.h"
#include "edge-impulse-sdk/tensorflow/lite/micro/micro_mutable_op_resolver.h"
#include "edge-impulse-sdk/porting/ei_classifier_porting.h"

#if EI_CLASSIFIER_PRINT_STATE
#if defined(__cplusplus) && EI_C_LINKAGE == 1
extern "C" {
    extern void ei_printf(const char *format, ...);
}
#else
extern void ei_printf(const char *format, ...);
#endif
#endif

#define STRINGIZE(x) #x
#define STRINGIZE_VALUE_OF(x) STRINGIZE(x)

#if defined (__GNUC__)  /* GNU compiler */
#define ALIGN(X) __attribute__((aligned(X)))
#define DEFINE_SECTION(x) __attribute__((section(x)))
#elif defined (_MSC_VER)
#define ALIGN(X) __declspec(align(X))
#elif defined (__TASKING__) /* TASKING Compiler */
#define ALIGN(X) __align(X)
#define DEFINE_SECTION(x) __attribute__((section(x)))
#elif defined (__ARMCC_VERSION) /* Arm Compiler */
#define ALIGN(X) __ALIGNED(x)
#define DEFINE_SECTION(x) __attribute__((section(x)))
#elif defined (__ICCARM__) /* IAR Compiler */
#define ALIGN(x) __attribute__((aligned(x)))
#define DEFINE_SECTION(x) __attribute__((section(x)))
#elif defined (__clang__) /* LLVM/Clang Compiler */
#define ALIGN(X) __ALIGNED(x)
#define DEFINE_SECTION(x) __attribute__((section(x)))
#endif

#if defined(EI_MODEL_SECTION) && (defined(__GNUC__) || defined(__clang__))
#define MODEL_SECTION(X) __attribute__((section(STRINGIZE_VALUE_OF(X))))
#else
#define MODEL_SECTION(X)
#endif

#ifndef EI_MAX_SCRATCH_BUFFER_COUNT
#ifndef CONFIG_IDF_TARGET_ESP32S3
#define EI_MAX_SCRATCH_BUFFER_COUNT 14
#else
#define EI_MAX_SCRATCH_BUFFER_COUNT 28
#endif // CONFIG_IDF_TARGET_ESP32S3
#endif // EI_MAX_SCRATCH_BUFFER_COUNT

#ifndef EI_MAX_OVERFLOW_BUFFER_COUNT
#define EI_MAX_OVERFLOW_BUFFER_COUNT 10
#endif // EI_MAX_OVERFLOW_BUFFER_COUNT

using namespace tflite;
using namespace tflite::ops;
using namespace tflite::ops::micro;

namespace {

#if defined(EI_CLASSIFIER_ALLOCATION_STATIC_HIMAX) || defined(EI_CLASSIFIER_ALLOCATION_STATIC_HIMAX_GNU)
constexpr int kTensorArenaSize = 74464;
#else
constexpr int kTensorArenaSize = 73440;
#endif

#if defined(EI_CLASSIFIER_ALLOCATION_STATIC)
#if defined (EI_TENSOR_ARENA_LOCATION)
uint8_t tensor_arena[kTensorArenaSize] ALIGN(16) DEFINE_SECTION(STRINGIZE_VALUE_OF(EI_TENSOR_ARENA_LOCATION));
#else
uint8_t tensor_arena[kTensorArenaSize] ALIGN(16);
#endif
#elif defined(EI_CLASSIFIER_ALLOCATION_STATIC_HIMAX)
#pragma Bss(".tensor_arena")
uint8_t tensor_arena[kTensorArenaSize] ALIGN(16);
#pragma Bss()
#elif defined(EI_CLASSIFIER_ALLOCATION_STATIC_HIMAX_GNU)
uint8_t tensor_arena[kTensorArenaSize] ALIGN(16) __attribute__((section(".tensor_arena")));
#else
#define EI_CLASSIFIER_ALLOCATION_HEAP 1
uint8_t* tensor_arena = NULL;
#endif

static uint8_t* tensor_boundary;
static uint8_t* current_location;

template <int SZ, class T> struct TfArray {
  int sz; T elem[SZ];
};

enum used_operators_e {
  OP_CONV_2D, OP_DEPTHWISE_CONV_2D, OP_PAD, OP_ADD, OP_SOFTMAX,  OP_LAST
};

struct TensorInfo_t { // subset of TfLiteTensor used for initialization from constant memory
  TfLiteAllocationType allocation_type;
  TfLiteType type;
  void* data;
  TfLiteIntArray* dims;
  size_t bytes;
  TfLiteQuantization quantization;
};

typedef struct {
  TfLiteTensor tensor;
  int16_t index;
} TfLiteTensorWithIndex;

typedef struct {
  TfLiteEvalTensor tensor;
  int16_t index;
} TfLiteEvalTensorWithIndex;

TfLiteContext ctx{};
static const int MAX_TFL_TENSOR_COUNT = 4;
static TfLiteTensorWithIndex tflTensors[MAX_TFL_TENSOR_COUNT];
static const int MAX_TFL_EVAL_COUNT = 4;
static TfLiteEvalTensorWithIndex tflEvalTensors[MAX_TFL_EVAL_COUNT];
TfLiteRegistration registrations[OP_LAST];

namespace g0 {
const TfArray<4, int> tensor_dimension0 = { 4, { 1,48,48,3 } };
const TfArray<1, float> quant0_scale = { 1, { 0.0039215688593685627, } };
const TfArray<1, int> quant0_zero = { 1, { -128 } };
const TfLiteAffineQuantization quant0 = { (TfLiteFloatArray*)&quant0_scale, (TfLiteIntArray*)&quant0_zero, 0 };
const MODEL_SECTION(EI_MODEL_SECTION) ALIGN(16) int32_t tensor_data1[4*2] = { 
  0, 0, 
  0, 1, 
  0, 1, 
  0, 0, 
};
const TfArray<2, int> tensor_dimension1 = { 2, { 4,2 } };
const MODEL_SECTION(EI_MODEL_SECTION) ALIGN(16) int32_t tensor_data2[4] = { 12321, -20564, -19820, -17888, };
const TfArray<1, int> tensor_dimension2 = { 1, { 4 } };
const TfArray<4, float> quant2_scale = { 4, { 0.00029045544215478003, 0.00022324849851429462, 0.00022863986669108272, 0.00026873048045672476, } };
const TfArray<4, int> quant2_zero = { 4, { 0,0,0,0 } };
const TfLiteAffineQuantization quant2 = { (TfLiteFloatArray*)&quant2_scale, (TfLiteIntArray*)&quant2_zero, 0 };
const MODEL_SECTION(EI_MODEL_SECTION) ALIGN(16) int8_t tensor_data3[4*1*1*32] = { 
  /* [0][0][][] */ 23,-16,-89,-50,127,-25,8,-51,123,-18,78,68,-48,-36,36,-32,7,-72,-99,41,-35,38,-27,66,-4,-6,10,42,117,-44,45,24, 
  /* [1][0][][] */ 25,65,-85,-11,-28,38,118,44,-39,-56,-93,-2,88,-52,71,-110,127,-125,-4,-41,23,-73,-68,1,-43,-113,60,-45,-83,-112,-37,-60, 
  /* [2][0][][] */ -61,102,13,87,-19,-26,77,30,-68,-91,97,-92,-96,85,-111,94,52,72,111,-89,3,36,-51,-13,30,-24,86,-127,-72,9,69,42, 
  /* [3][0][][] */ 74,-75,82,-3,-1,93,39,-6,5,-110,23,92,55,-14,-127,-5,99,-92,77,13,-118,-24,-18,-7,67,-23,-84,65,-96,104,25,46, 
};
const TfArray<4, int> tensor_dimension3 = { 4, { 4,1,1,32 } };
const TfArray<4, float> quant3_scale = { 4, { 0.0037937469314783812, 0.0029159318655729294, 0.0029863505624234676, 0.003509989008307457, } };
const TfArray<4, int> quant3_zero = { 4, { 0,0,0,0 } };
const TfLiteAffineQuantization quant3 = { (TfLiteFloatArray*)&quant3_scale, (TfLiteIntArray*)&quant3_zero, 0 };
const MODEL_SECTION(EI_MODEL_SECTION) ALIGN(16) int32_t tensor_data4[32] = { -33, -528, -659, -303, -1096, -123, -477, -304, -394, -1106, -340, 156, -107, 64, 1024, -1020, -67, -42, -215, -887, -342, 118, -1323, -907, -355, -1119, -832, -1122, 1401, 99, -986, -817, };
const TfArray<1, int> tensor_dimension4 = { 1, { 32 } };
const TfArray<32, float> quant4_scale = { 32, { 5.9197835071245208e-05, 4.7229521442204714e-05, 5.0292554078623652e-05, 5.7862314861267805e-05, 5.0786082283593714e-05, 4.8981684813043103e-05, 5.4040767281549051e-05, 4.5103428419679403e-05, 4.8884448915487155e-05, 5.0337330321781337e-05, 4.7137426008703187e-05, 5.1543796871555969e-05, 4.9586418754188344e-05, 5.4023163102101535e-05, 5.2534895075950772e-05, 4.9158948968397453e-05, 4.3242598621873185e-05, 5.7365159591427073e-05, 5.5050397349987179e-05, 5.7775785535341129e-05, 5.4465723223984241e-05, 5.8999379689339548e-05, 5.3453310101758689e-05, 5.6087559642037377e-05, 5.1853014156222343e-05, 5.0260900025023147e-05, 4.3278836528770626e-05, 4.9580201448407024e-05, 6.7430468334350735e-05, 5.3603209380526096e-05, 4.8310310376109555e-05, 5.7982073485618457e-05, } };
const TfArray<32, int> quant4_zero = { 32, { 0,0,0,0,0,0,0,0,0,0,0,0,0,0,0,0,0,0,0,0,0,0,0,0,0,0,0,0,0,0,0,0 } };
const TfLiteAffineQuantization quant4 = { (TfLiteFloatArray*)&quant4_scale, (TfLiteIntArray*)&quant4_zero, 0 };
const MODEL_SECTION(EI_MODEL_SECTION) ALIGN(16) int8_t tensor_data5[32*1*1*96] = { 
  /* [0][0][][] */ -42,-30,78,-3,30,-37,-67,-91,32,-71,-80,-5,1,2,-23,30,-44,-20,-83,-7,-63,-80,-1,74,-94,28,58,-43,59,21,-13,-58,61,-44,-77,55,-87,-46,-78,17,57,-75,-71,77,45,-71,83,-25,11,-36,-45,70,-94,-36,-53,96,-27,14,69,-95,-71,54,-17,42,-15,11,45,65,10,70,17,-127,74,-69,27,59,-79,4,-49,9,39,4,56,-3,-42,-25,-74,89,5,95,-11,-86,-14,7,37,2, 
  /* [1][0][][] */ -41,42,-87,-14,-115,36,18,23,73,-73,-114,59,88,-13,7,16,81,-43,68,76,-30,-21,24,4,-17,-47,-45,113,2,1,100,-53,83,104,-5,39,24,53,11,-71,-66,10,-24,-100,-42,32,-40,-57,-12,-110,127,44,34,91,-105,-29,47,94,30,57,-31,52,-70,-51,-60,12,52,42,89,25,33,25,-111,92,-48,29,85,-57,-48,72,-73,69,-22,-91,19,96,-69,-78,85,66,64,21,98,103,19,-2, 
  /* [2][0][][] */ 9,9,-37,36,-56,-58,75,39,-127,45,-69,119,115,-42,52,-108,-38,-8,26,85,-94,-15,91,17,-61,86,102,25,-40,103,47,51,-108,-43,-125,-113,-67,59,42,-60,-124,-103,-2,-23,-92,84,-45,-101,47,72,69,-91,-42,28,49,5,-109,64,-30,-29,-27,69,-61,64,42,30,39,42,-83,50,15,-93,50,-89,-2,33,-17,-25,-3,-26,20,-87,-12,-55,-17,-114,-53,-24,73,89,-1,-35,-67,-105,-33,-67, 
  /* [3][0][][] */ 12,-4,29,-41,-100,42,-90,5,25,28,28,15,95,77,38,-8,76,74,-13,-2,97,-71,-50,-91,-59,-127,-55,95,46,-47,65,-14,-29,-50,-7,-16,-64,-54,21,1,-43,-64,-83,-5,24,15,-81,-75,55,-44,50,2,93,-2,62,-77,-68,-80,-83,-52,-54,22,-62,75,-3,-35,-51,-63,-31,-64,22,89,28,-103,26,-35,45,71,68,-56,-68,-79,47,76,16,20,-41,-92,-50,27,-2,-104,86,-57,-92,21, 
  /* [4][0][][] */ 20,60,-24,23,21,21,3,-11,30,49,-29,24,-1,-56,-35,-70,-47,-29,-16,41,64,-100,48,-2,-24,-28,29,-72,-60,59,-82,-63,31,71,-12,-113,-66,-31,-108,19,-67,-76,-85,-101,3,65,5,24,-7,-8,-37,-88,-39,11,-98,-12,8,-98,0,-9,-21,-87,-59,-84,-63,26,-22,-53,52,-108,-103,-97,-68,-12,57,22,79,-44,-29,-71,-19,-58,-112,-39,-24,33,54,-5,-127,-88,18,70,-3,52,-112,-39, 
  /* [5][0][][] */ 77,-102,69,75,-34,-84,27,23,89,-121,-4,-53,-40,78,34,18,47,57,-124,127,23,44,6,-24,-109,-31,-5,-87,44,78,3,-103,-36,-11,-46,-12,-113,-30,-10,20,-82,-60,31,71,-33,6,22,-56,-107,125,-4,38,-5,5,47,-2,70,-22,-60,-53,14,-59,50,-67,-38,81,-25,27,48,3,58,-91,-46,52,-25,-71,26,-52,10,61,92,14,34,79,-77,70,-26,32,56,-80,111,39,-34,18,84,-70, 
  /* [6][0][][] */ 17,-53,84,62,-127,-53,-3,46,-13,-82,-3,-72,40,42,87,-118,19,-4,-5,94,-60,-100,73,40,-85,-76,-3,-45,-23,-64,30,-78,-65,-103,-22,-101,-26,24,-107,64,59,37,12,-32,-99,68,-86,-46,-79,25,-34,-53,38,-48,73,-8,7,-39,-76,69,-68,-19,56,-54,-85,38,74,-32,59,-7,-90,-8,34,-56,-85,-42,-52,-95,-47,-31,22,-44,50,-25,-65,-74,-53,-89,67,70,78,-9,-42,-46,59,-24, 
  /* [7][0][][] */ 121,73,-48,-49,-122,105,-27,7,105,14,-103,2,73,-73,39,34,37,14,6,108,63,24,-12,70,-108,81,40,58,-83,127,-14,38,45,29,71,105,-117,85,1,-33,87,-72,81,59,42,-2,92,-115,50,-60,-92,-62,-17,95,12,51,122,-95,-29,-75,27,-46,91,-90,-61,-68,53,25,-118,25,65,90,81,27,60,46,-45,42,-102,43,85,-38,8,-61,78,32,-115,77,86,4,75,52,-36,-29,-2,-56, 
  /* [8][0][][] */ -8,10,-45,-88,100,24,-72,-22,-8,18,33,75,-26,-59,-82,-52,-66,64,-75,26,3,-30,62,92,-71,75,24,52,-62,-9,-98,87,58,-51,29,-25,99,-14,10,59,58,74,-115,-110,-23,-42,-37,94,4,-102,-82,-13,-73,-37,-30,-122,24,81,-80,95,70,46,22,67,-46,-43,-26,78,-48,24,12,-25,53,42,-1,12,-68,86,65,45,21,62,-127,-95,12,26,55,-35,9,-49,-79,97,-97,-119,-56,30, 
  /* [9][0][][] */ -24,-14,72,14,96,-72,-67,-127,10,73,-34,20,4,-93,-113,-48,-19,-25,-53,-32,-22,60,-118,-115,72,-33,-36,-3,-35,-51,-101,67,27,-25,-3,15,-90,-12,-55,-63,15,-83,21,-104,43,-8,-115,20,18,14,-95,-15,95,-89,-85,63,49,-72,12,-29,-101,65,99,-90,-73,-21,64,15,-7,62,69,-103,-19,44,-64,-107,-37,-127,-59,65,3,-3,61,0,-63,-107,6,-38,60,2,-51,120,69,-26,28,-55, 
  /* [10][0][][] */ -88,61,96,-110,-35,105,88,-3,-4,23,-24,-43,123,68,-65,-2,-28,82,-62,-50,12,17,51,-72,-21,22,-103,-81,-31,95,-110,-74,71,70,88,58,-29,-21,-36,-21,-64,127,-108,-61,-117,-65,-30,-97,-17,17,72,1,79,-1,-64,-52,-88,-10,42,-74,32,73,66,55,91,-81,-98,-64,3,-14,-66,-27,91,14,-115,110,18,59,51,-10,43,18,82,85,-115,23,69,4,59,-16,-1,-18,-12,-46,-58,-58, 
  /* [11][0][][] */ 57,28,-5,66,50,21,41,16,71,91,-71,98,-51,-89,30,-69,-37,-83,38,55,39,63,25,-90,-117,-57,-13,65,78,-3,33,-45,-71,-62,26,61,-47,76,-50,-61,-18,78,-60,18,-21,-40,-88,-72,70,112,39,55,-86,-101,37,51,-93,-74,-9,-82,-87,88,94,20,-29,63,-48,16,49,39,-78,-73,39,79,-64,46,-62,33,-41,52,-86,-35,-42,-44,45,-57,6,-44,-67,4,13,-127,-86,-11,-45,-52, 
  /* [12][0][][] */ 27,63,-58,6,7,34,-30,41,-77,57,-10,-11,-72,4,49,-102,-88,-43,-81,-34,19,-13,6,84,-92,-24,82,-127,74,43,-38,92,-83,-56,-25,23,-19,-52,-11,44,105,9,-101,-31,-17,-77,-26,103,-49,-75,-96,109,-19,14,-54,92,-22,-110,19,44,15,96,31,4,127,19,-46,115,36,79,-20,24,36,83,3,-21,-44,22,-103,-103,-52,37,47,-9,-33,40,15,90,-83,-81,89,29,72,-13,51,50, 
  /* [13][0][][] */ 58,-22,94,43,62,82,35,34,33,-62,-28,-7,108,82,32,-65,-79,-39,-24,9,85,-48,106,-70,-106,-23,11,44,-44,-46,88,31,46,75,-44,60,-53,-43,15,25,-72,83,-39,24,-50,44,-28,-45,35,101,6,-99,-50,18,75,-65,-13,46,-1,-76,15,92,-93,38,-68,-69,-104,42,-27,-4,102,33,-54,30,-82,-19,-47,64,38,-59,26,-55,112,43,-77,-112,76,86,24,-57,-71,34,127,-40,44,1, 
  /* [14][0][][] */ -26,-73,89,80,120,11,18,-98,-43,-23,92,121,-34,-55,-57,-21,-18,-24,14,14,-43,56,27,81,-32,-44,1,37,-72,-108,-58,30,114,-10,20,-1,114,104,26,-59,12,-52,29,85,62,-91,67,-43,117,26,49,50,99,-10,-9,5,-45,19,64,127,-22,-32,5,62,-22,5,97,-66,-63,-79,-52,83,31,72,69,-40,49,-57,74,40,54,22,-113,-42,-82,-49,-51,90,84,11,91,-10,76,66,-27,63, 
  /* [15][0][][] */ -9,-46,-43,41,105,-71,31,-110,29,-25,-86,45,122,-18,-101,-120,59,-8,-54,-1,24,-5,43,73,45,36,15,115,11,91,37,-104,-8,-15,-79,-28,-75,75,70,-82,-9,81,-64,-45,-1,-90,-61,-93,-26,-61,25,6,-51,-110,-66,-27,42,23,-10,75,-25,-60,-23,122,-55,64,-84,-20,-66,-15,86,-68,47,-29,27,-110,30,28,70,47,-92,82,-107,-73,-127,-54,-102,13,57,38,-112,-59,42,78,-114,79, 
  /* [16][0][][] */ -59,3,102,-57,-25,114,-50,40,48,55,-108,78,-30,-41,-47,-81,103,83,36,100,120,78,-41,52,-65,65,-57,66,-96,64,45,11,-89,79,73,62,-41,60,-51,-66,24,-46,74,87,63,102,99,-16,-58,-82,2,121,-61,124,80,71,23,61,45,-1,127,99,53,76,55,9,-37,99,39,105,-44,-11,29,88,67,82,11,93,-106,-16,19,-94,82,16,13,105,90,6,86,21,-6,81,74,-21,-67,31, 
  /* [17][0][][] */ 4,-86,48,46,-11,-32,-49,-69,32,-39,53,66,123,43,-105,72,40,37,106,89,-57,-7,26,-39,35,15,-51,52,120,-40,-30,38,7,-30,30,-1,-1,51,-51,-28,-94,-6,-24,-12,-21,-5,41,-83,89,93,20,8,26,45,57,-86,-40,102,-54,-49,22,-45,35,102,-70,-63,38,-87,-40,-11,125,56,50,-124,-63,80,127,-4,37,-25,4,29,-34,-62,-92,36,87,-8,41,45,-51,-55,-20,102,-4,6, 
  /* [18][0][][] */ -103,79,75,-56,-48,-127,-86,5,-14,66,-91,-34,-44,34,44,-64,13,-23,43,-39,87,-40,10,-64,-18,-88,-20,87,20,9,-2,27,46,-21,-64,-79,-29,27,-19,46,-28,-9,-56,-10,-88,7,7,0,19,-35,49,20,-82,-13,-16,80,-18,24,-32,-95,82,68,5,20,-76,-98,-30,80,37,-83,-69,91,-73,-43,-70,-87,35,37,-4,-68,-43,5,-5,-58,77,-28,51,46,-75,-60,-31,57,90,-14,26,-44, 
  /* [19][0][][] */ -5,27,37,11,82,-81,53,51,51,-13,4,-27,-42,6,-60,38,36,-96,127,23,-36,41,-58,-8,53,-78,2,-69,-88,-61,-67,52,39,-79,5,40,-1,-70,-5,-92,15,-104,-79,32,-83,8,40,-87,-39,4,-51,15,16,-7,-16,-28,2,118,23,-32,20,-61,60,18,-21,-16,-37,-20,-27,21,52,-57,-1,-112,-68,-75,-36,-98,-7,64,24,-66,-43,42,-82,-24,-7,-13,46,4,-21,77,-44,65,33,-55, 
  /* [20][0][][] */ 49,69,40,73,-13,64,6,104,16,10,-66,-15,7,84,27,-59,-49,-38,-10,-44,22,-42,-66,-63,59,-88,-96,24,3,-21,-25,125,70,73,-28,65,20,-10,49,-80,-57,-23,-46,-82,-9,-31,-14,88,40,-120,-71,36,42,127,24,9,107,100,60,71,106,-63,-21,-35,50,-50,-48,28,-45,-22,-58,84,-66,-26,23,6,72,53,79,100,66,14,65,-2,47,93,-6,62,14,73,12,112,48,14,14,55, 
  /* [21][0][][] */ 50,33,77,-38,127,-56,80,-9,33,-76,-55,59,41,30,-43,-31,-75,3,46,-6,80,-7,51,-46,37,-80,2,81,41,9,-13,-46,-7,0,-32,-104,89,48,-107,3,-21,18,26,-29,-86,-74,-77,64,-18,-35,23,39,55,30,-81,-1,-32,56,12,98,59,-36,-29,9,24,28,5,-27,-58,16,79,82,52,3,24,76,-61,-24,73,73,29,102,41,-56,17,-86,55,-43,-64,50,98,-87,-15,-46,43,3, 
  /* [22][0][][] */ -3,-75,-76,-50,91,-64,53,14,-45,40,-88,-65,92,-120,-125,-92,-1,37,-90,-25,39,-91,-5,-6,52,30,-58,107,-62,-55,-84,-123,6,20,44,-21,-29,-43,-80,-58,-29,-37,-28,46,13,-124,45,-49,-83,-48,25,-42,-42,-102,-72,-7,-44,-48,4,-53,72,-95,-92,-60,-81,-14,-124,-12,123,58,-46,-35,-78,-9,22,-106,54,-72,19,47,52,-97,-95,-127,31,37,52,-53,-80,-5,-35,63,-18,-13,-59,112, 
  /* [23][0][][] */ 24,-91,-20,22,127,-112,-19,-94,21,-78,44,33,-12,-105,-9,-48,45,-49,-79,46,46,-85,58,-49,-20,-36,39,-8,29,10,31,2,-54,11,-8,-1,53,-29,-47,-17,-103,-23,-16,-106,-78,-91,64,-1,37,-113,-51,-66,46,-68,-69,41,-85,-21,42,17,-111,-95,-69,-36,50,8,-112,-106,27,-35,65,-80,-27,-51,-56,-95,11,-38,50,66,-63,-60,-9,-104,49,-18,68,-37,-94,9,57,15,56,-64,-33,42, 
  /* [24][0][][] */ -98,-57,-96,-99,-112,-114,-59,-119,42,74,67,34,98,60,-39,-127,-79,36,-11,-54,82,-73,-59,-35,-2,-27,60,38,74,13,-8,-67,-30,-3,35,-2,-63,-81,13,-24,-63,-87,81,-10,0,-33,29,45,-103,-46,-34,11,36,44,54,-58,-19,46,-6,-16,87,-23,18,75,-99,81,-45,-77,-116,38,-60,-23,-29,10,55,75,68,-77,-91,-98,-71,-85,-43,-102,-6,52,-22,-82,23,-87,3,-61,-18,-10,-74,20, 
  /* [25][0][][] */ -52,-75,-95,-36,105,-37,-115,19,12,-123,-60,-8,34,-28,-121,-46,-90,25,57,-94,31,45,-37,-77,42,-21,-116,6,38,-54,6,108,53,-121,61,35,57,-79,5,13,-99,56,-65,-24,58,8,29,4,-116,110,-88,-24,10,5,-28,-18,-45,17,-85,37,75,10,68,12,24,38,-42,21,-47,20,-48,-124,2,-90,34,-8,35,35,-14,-9,16,16,-68,43,-92,-68,-116,-105,-47,-60,121,18,-127,0,4,-52, 
  /* [26][0][][] */ 75,-97,-53,-32,-98,-29,-49,2,-113,-86,88,41,-39,-33,-31,-67,78,27,-35,-110,28,49,96,-30,5,31,4,42,-6,-11,-75,10,11,-46,-123,-80,-97,82,-38,93,-110,121,58,24,-89,78,-47,83,-8,0,18,89,40,-33,-44,-89,119,75,41,10,24,-127,64,17,121,-50,-81,59,-92,86,121,121,92,-80,-106,-10,47,-114,-115,18,-42,87,104,-53,63,-10,-39,-9,-70,94,-17,33,-32,117,28,101, 
  /* [27][0][][] */ -15,-17,-79,-112,-127,-22,-84,-39,12,61,8,-117,-34,24,46,-49,32,-38,68,-95,-105,-15,-49,-45,-115,15,-118,-27,32,52,-53,-32,28,35,-103,-99,-102,-80,-121,52,-106,-10,0,-10,61,-3,34,65,53,86,27,-89,-49,-98,-30,-54,65,-45,-123,-92,-74,-77,-54,22,10,-64,-121,67,31,-16,-126,-18,28,-69,-32,-100,18,-81,51,64,49,-48,76,-73,-88,-96,-53,3,-66,-28,-53,-67,24,-9,53,24, 
  /* [28][0][][] */ 102,5,77,74,-2,-52,-24,-32,13,-58,82,96,-51,-31,18,127,90,91,7,33,-17,56,-29,-8,-12,62,-29,-19,-22,-80,14,-14,-28,21,101,50,60,-61,-13,63,91,65,-47,55,-51,4,43,72,62,-44,-68,-36,-5,16,20,16,36,28,102,92,-11,-4,-85,-2,45,75,33,79,-39,21,-17,1,73,29,5,-34,-84,2,-16,70,-31,-5,53,-14,59,-51,100,-46,-65,-41,-13,-53,-20,65,-79,-27, 
  /* [29][0][][] */ 16,17,63,-79,-101,2,-81,-29,39,-41,-97,-54,108,-109,-39,-41,-67,101,-3,-18,-65,-19,40,16,-56,33,-17,-6,-62,28,62,-15,-3,-18,-63,-67,-2,66,-46,51,22,62,-42,45,-16,72,-59,-48,-20,33,51,-74,42,-97,125,32,-120,25,-16,58,-96,93,-99,-37,-68,-29,49,47,53,-68,32,-78,108,41,16,32,127,-53,-18,-13,6,-67,-7,-74,40,66,-3,97,-29,79,77,24,-108,-4,12,42, 
  /* [30][0][][] */ 2,-82,-80,8,-102,21,-82,-36,79,-14,-26,-37,-89,-10,27,-9,-25,7,82,-114,23,-114,-123,-12,-123,-3,-87,82,-30,-96,-101,-17,-74,-87,-123,-68,2,-40,-26,-4,54,-93,-36,66,67,-63,67,28,-62,66,15,-92,83,-69,-34,66,-72,-49,-72,-72,-112,-2,-88,-44,-96,-102,-108,56,-77,73,42,-54,-80,69,18,-100,-52,-85,-91,-60,2,2,-93,-31,-119,1,-118,75,-48,-127,45,48,-52,-2,6,-86, 
  /* [31][0][][] */ 40,-102,11,79,-3,13,-52,-105,-13,-50,-72,-77,77,-127,-51,73,-70,-43,-6,-2,30,14,-43,60,13,-106,36,3,-91,-89,25,61,30,18,-74,-36,48,-36,-82,-86,31,-54,-52,0,-10,-56,-42,-14,51,-15,42,-59,-124,-29,-83,-2,-119,21,-32,58,-7,-38,31,-27,15,69,-46,-69,17,-116,-125,28,-67,-64,-30,-13,-58,-57,25,74,-69,-52,20,58,28,54,-86,-3,-21,-41,-103,-72,22,91,-37,-44, 
};
const TfArray<4, int> tensor_dimension5 = { 4, { 32,1,1,96 } };
const TfArray<32, float> quant5_scale = { 32, { 0.0025159078650176525, 0.0020072546321898699, 0.0021374335046857595, 0.0024591484107077122, 0.0021584085188806057, 0.002081721555441618, 0.0022967325057834387, 0.0019168956205248833, 0.0020775890443474054, 0.0021393364295363426, 0.0020033405162394047, 0.0021906113252043724, 0.002107422798871994, 0.0022959844209253788, 0.0022327329497784376, 0.0020892552565783262, 0.0018378103850409389, 0.0024380192626267672, 0.0023396417964249849, 0.0024554708506911993, 0.0023147931788116693, 0.0025074735749512911, 0.0022717656102031469, 0.0023837212938815355, 0.0022037529852241278, 0.0021360882092267275, 0.0018393504433333874, 0.0021071585360914469, 0.0028657948132604361, 0.0022781363222748041, 0.0020531881600618362, 0.0024642380885779858, } };
const TfArray<32, int> quant5_zero = { 32, { 0,0,0,0,0,0,0,0,0,0,0,0,0,0,0,0,0,0,0,0,0,0,0,0,0,0,0,0,0,0,0,0 } };
const TfLiteAffineQuantization quant5 = { (TfLiteFloatArray*)&quant5_scale, (TfLiteIntArray*)&quant5_zero, 0 };
const MODEL_SECTION(EI_MODEL_SECTION) ALIGN(16) int32_t tensor_data6[96] = { -3026, 3740, 13690, 3009, -4928, -4777, 22461, 2339, 3235, -2153, 30254, -760, -14114, 2848, 13350, 8240, 17555, 7346, -5362, -5743, 4811, 39812, 18770, 22625, 1819, 1062, 5976, 4105, 2318, -5284, 11253, -3342, -421, 5842, 151, 1386, 13365, 8009, -2751, 5247, 8697, 5229, 6371, 12571, 5984, 7601, 1959, 10657, 5660, -8666, -6915, 569, -521, -1739, 2714, 47, 259, -1004, -6332, 11525, -1300, 2266, -1632, -3584, -4438, 6976, 25613, 1949, -2770, 1115, 1164, 2696, 3043, -1092, 619, 15777, -569, 19231, 19138, -1388, 6591, 2151, -579, 1456, 11229, 10122, 4804, 1632, 7860, 9105, -373, -9149, 917, -2485, -2864, -3934, };
const TfArray<1, int> tensor_dimension6 = { 1, { 96 } };
const TfArray<96, float> quant6_scale = { 96, { 0.00023232147214002907, 0.00041106250137090683, 0.0001741151645546779, 0.0002626958885230124, 0.00019163542310707271, 0.00031440559541806579, 0.00014600875147152692, 0.00028804398607462645, 0.00017953856149688363, 0.00033015021472238004, 6.5880005422513932e-05, 0.00017231274978257716, 0.0001754302647896111, 0.00098043272737413645, 0.000230131990974769, 0.00014827889390289783, 0.00010505814134376124, 0.00019401450117584318, 0.00038147356826812029, 0.00029944567359052598, 0.00012085357593605295, 6.8203102273400873e-05, 0.00015962531324476004, 7.2732684202492237e-05, 0.00010659982945071533, 0.00042324772221036255, 0.00048708074609749019, 0.00024769353331066668, 0.00018997129518538713, 0.00036134224501438439, 0.00012917457206640393, 0.00022607487335335463, 0.00016942183719947934, 0.00018863000150304288, 0.00025076913880184293, 0.00019960997451562434, 0.00014306601951830089, 0.00012018834240734577, 0.00023582407447975129, 0.00033099611755460501, 0.0001478475023759529, 0.00048471614718437195, 0.00023402736405842006, 0.00018494606774765998, 0.00031923357164487243, 0.00012902190792374313, 0.00025685853324830532, 0.00020385357493069023, 0.00023961649276316166, 0.00014431575255002826, 0.00022119806089904159, 0.00017413815658073872, 0.00048658938612788916, 0.00015921490557957441, 0.00028236425714567304, 0.0002328176487935707, 0.0003846719628199935, 0.0002896922524087131, 0.00025413266848772764, 0.00015296789933927357, 0.0005726800300180912, 0.00028005614876747131, 0.00017656314594205469, 0.00023045171110425144, 0.00042317641782574356, 0.00027044065063819289, 8.4358885942492634e-05, 0.0001957387721631676, 0.00042878056410700083, 0.00027893853257410228, 0.00029411213472485542, 0.00019644267740659416, 0.00045024900464341044, 0.00038535744533874094, 0.00022007168445270509, 0.000136662827571854, 0.00023077736841514707, 9.7313386504538357e-05, 9.4743452791590244e-05, 0.00017287126684095711, 0.00020911789033561945, 0.00013859260070603341, 0.00011598954006331041, 0.00018483710300642997, 0.00015866124886088073, 0.0002330235147383064, 0.00049271737225353718, 0.00019161698583047837, 8.5262698121368885e-05, 0.00021328109141904861, 0.00025243987329304218, 0.00022171241289470345, 0.00025060208281502128, 0.00044205132871866226, 0.00022574244940187782, 0.00012030154903186485, } };
const TfArray<96, int> quant6_zero = { 96, { 0,0,0,0,0,0,0,0,0,0,0,0,0,0,0,0,0,0,0,0,0,0,0,0,0,0,0,0,0,0,0,0,0,0,0,0,0,0,0,0,0,0,0,0,0,0,0,0,0,0,0,0,0,0,0,0,0,0,0,0,0,0,0,0,0,0,0,0,0,0,0,0,0,0,0,0,0,0,0,0,0,0,0,0,0,0,0,0,0,0,0,0,0,0,0,0 } };
const TfLiteAffineQuantization quant6 = { (TfLiteFloatArray*)&quant6_scale, (TfLiteIntArray*)&quant6_zero, 0 };
const MODEL_SECTION(EI_MODEL_SECTION) ALIGN(16) int8_t tensor_data7[96*1*1*16] = { 
  /* [0][0][][] */ -52,40,-35,-127,-23,-37,-5,-75,-30,-8,29,69,-7,-26,24,72, 
  /* [1][0][][] */ -34,28,-38,-18,-6,-20,35,-85,80,49,-37,1,27,-10,54,-127, 
  /* [2][0][][] */ 37,-30,-64,100,27,-15,-57,-72,105,-81,-49,-28,7,127,-113,66, 
  /* [3][0][][] */ 16,-59,-1,-43,-2,-21,15,31,103,10,38,31,-33,94,-14,127, 
  /* [4][0][][] */ -127,27,-2,42,-12,-34,-52,79,109,-17,16,-56,-108,78,-60,106, 
  /* [5][0][][] */ 53,99,114,-18,13,42,-107,63,-57,127,-81,-42,58,-23,-116,53, 
  /* [6][0][][] */ 64,-106,92,-84,26,-37,-17,107,-49,-55,43,-49,-34,127,-24,113, 
  /* [7][0][][] */ 58,127,-2,-31,67,-5,-39,-80,75,61,-73,6,70,-35,43,33, 
  /* [8][0][][] */ 20,-102,-4,-73,14,-84,17,-67,17,67,43,-41,21,127,65,71, 
  /* [9][0][][] */ -2,-21,12,127,56,7,21,-89,-68,93,42,-40,-3,-67,-28,-25, 
  /* [10][0][][] */ -95,65,-29,-127,49,76,63,126,81,-6,124,-6,-115,-79,18,1, 
  /* [11][0][][] */ -7,34,47,2,112,-44,118,-35,-55,58,-12,33,-28,127,-59,-43, 
  /* [12][0][][] */ 50,-33,-122,25,12,-29,24,67,1,92,-103,-127,10,83,-40,-9, 
  /* [13][0][][] */ -6,5,-7,5,-1,-127,-25,28,10,0,6,-12,11,-7,2,17, 
  /* [14][0][][] */ 36,-23,62,-36,30,-18,-127,-83,-25,-16,-14,27,44,-59,5,-1, 
  /* [15][0][][] */ -78,31,-71,-69,-37,-21,110,1,-26,102,127,50,-3,47,104,1, 
  /* [16][0][][] */ 19,63,125,127,-11,0,76,90,-84,56,-103,25,31,4,19,-32, 
  /* [17][0][][] */ -23,-119,-3,47,-49,-6,-47,29,-127,-51,20,-71,-11,52,42,-21, 
  /* [18][0][][] */ -6,63,26,31,54,25,31,16,62,32,-9,-19,11,127,76,5, 
  /* [19][0][][] */ 32,-15,58,6,126,3,-83,-30,-71,-66,-83,-127,-21,9,-11,12, 
  /* [20][0][][] */ 48,-2,-33,-15,-12,-127,-25,0,-20,43,-90,-4,23,-20,42,5, 
  /* [21][0][][] */ 59,7,50,-12,-47,11,6,107,-43,-127,63,94,4,97,59,79, 
  /* [22][0][][] */ 19,9,-16,127,-15,-20,46,51,-10,-1,-46,-16,-9,28,0,10, 
  /* [23][0][][] */ 30,25,127,-77,54,41,-18,31,-5,-47,26,10,25,-24,-118,48, 
  /* [24][0][][] */ -127,75,15,-3,2,123,-2,-21,6,39,113,-31,-123,7,95,-63, 
  /* [25][0][][] */ 27,14,-2,45,26,13,88,-72,13,-127,-4,-37,-26,-23,-3,5, 
  /* [26][0][][] */ -61,-26,1,5,-42,16,-23,-28,-127,-56,3,-44,36,116,-76,50, 
  /* [27][0][][] */ 2,19,1,82,33,-51,-14,-26,80,25,-44,-9,9,127,14,30, 
  /* [28][0][][] */ -17,78,59,39,127,28,44,44,-53,-13,-17,-33,22,56,50,-16, 
  /* [29][0][][] */ 24,-24,-10,1,6,2,10,0,-30,-35,-4,-127,31,-15,-5,-9, 
  /* [30][0][][] */ 1,63,-61,96,-45,-36,38,-127,-57,35,-52,-20,92,57,67,111, 
  /* [31][0][][] */ -55,15,14,-86,20,27,-8,-49,-7,127,-12,-79,-34,-92,-30,-22, 
  /* [32][0][][] */ -127,-62,19,61,63,35,8,27,5,-35,-68,27,38,-2,58,53, 
  /* [33][0][][] */ -22,-62,-46,13,-86,-41,-54,7,77,47,-2,-58,-8,-71,127,31, 
  /* [34][0][][] */ 51,3,74,4,28,11,-56,92,-61,-41,85,27,7,-20,-6,127, 
  /* [35][0][][] */ -39,84,-52,5,-13,-36,23,-98,76,127,-105,27,12,-36,71,-127, 
  /* [36][0][][] */ -88,51,45,47,56,64,127,57,22,47,47,49,-25,-8,-16,-54, 
  /* [37][0][][] */ 3,-29,10,-30,27,-48,-77,-87,-127,-56,-68,-84,-32,-120,102,-83, 
  /* [38][0][][] */ 17,70,-20,-48,127,15,54,-18,90,84,-17,9,-30,-65,20,0, 
  /* [39][0][][] */ -11,38,10,-127,7,34,-42,47,34,-84,-13,-16,20,72,14,48, 
  /* [40][0][][] */ -7,6,30,-95,20,14,-20,-11,-80,-33,21,7,23,-127,27,-21, 
  /* [41][0][][] */ -5,-19,-27,6,23,-27,26,4,3,45,-56,-24,-127,25,12,26, 
  /* [42][0][][] */ 127,51,19,-36,-89,-66,-56,-62,-16,27,46,-19,-29,27,97,-72, 
  /* [43][0][][] */ 3,56,-95,75,92,48,127,-47,-2,-26,-73,-19,48,-88,-122,-57, 
  /* [44][0][][] */ -59,29,18,-57,65,52,-89,-127,-49,-12,35,-4,-2,-85,43,-112, 
  /* [45][0][][] */ 28,8,-127,-15,-1,-90,-11,-108,-15,32,-38,-92,43,5,11,13, 
  /* [46][0][][] */ 7,-5,-17,-91,-19,22,15,-18,-111,-23,18,23,1,-127,42,-26, 
  /* [47][0][][] */ -5,61,23,-35,120,5,-21,14,-46,30,24,45,-10,-10,127,-29, 
  /* [48][0][][] */ -127,-72,-19,39,68,27,34,17,11,4,-58,32,21,33,57,33, 
  /* [49][0][][] */ 45,-28,26,127,66,-6,58,16,-127,-110,-18,-94,40,125,28,-126, 
  /* [50][0][][] */ 11,-40,-79,17,31,-127,-7,-3,8,-1,-18,-24,48,8,-11,21, 
  /* [51][0][][] */ 13,79,24,-3,8,-15,-13,5,-125,65,-16,-90,27,-127,-12,99, 
  /* [52][0][][] */ -11,28,23,40,53,32,25,56,68,54,12,-21,-19,127,10,35, 
  /* [53][0][][] */ 9,-31,6,-24,-103,-32,-109,-14,40,43,-20,-50,66,-127,119,40, 
  /* [54][0][][] */ 80,-49,-43,-4,127,54,-84,-13,-89,-61,-20,-82,38,-3,-37,11, 
  /* [55][0][][] */ 57,20,18,-2,66,-15,-81,-127,-69,-127,-77,-12,25,-50,-18,-16, 
  /* [56][0][][] */ -24,29,22,-25,-14,-14,-104,52,-3,127,-12,-8,47,-8,8,14, 
  /* [57][0][][] */ 17,10,-68,1,-53,-76,127,119,-26,45,-42,-40,16,35,112,-1, 
  /* [58][0][][] */ 14,36,-127,6,57,81,-20,32,-86,-50,47,58,-72,-3,22,-13, 
  /* [59][0][][] */ -72,60,97,11,-52,-30,83,127,28,-22,41,-11,-2,31,54,18, 
  /* [60][0][][] */ 0,16,-29,-24,5,-127,-39,-14,-20,-26,8,2,42,-35,21,33, 
  /* [61][0][][] */ 41,-12,8,127,73,8,24,-13,-120,-7,-10,41,12,32,15,-59, 
  /* [62][0][][] */ -28,105,10,-54,-51,-41,-70,38,-14,-54,-127,-48,9,-106,-52,4, 
  /* [63][0][][] */ -50,25,-9,127,-57,29,-51,-11,-46,-14,-21,-50,18,74,20,18, 
  /* [64][0][][] */ 43,31,-6,34,-10,0,2,28,-5,26,-28,-25,4,-127,41,-32, 
  /* [65][0][][] */ -17,-41,25,-127,33,16,45,-34,-32,-5,33,-57,10,10,-15,-11, 
  /* [66][0][][] */ 32,-18,85,-33,-10,48,-31,75,-18,-127,64,62,24,88,13,87, 
  /* [67][0][][] */ 4,40,0,-127,8,14,-75,35,59,-123,-44,-21,58,80,58,41, 
  /* [68][0][][] */ -12,22,127,-17,37,-10,-19,18,-40,-39,-25,-32,3,6,50,-7, 
  /* [69][0][][] */ 127,88,-20,-6,-68,-34,-43,-56,-16,-10,27,-51,-10,24,31,-64, 
  /* [70][0][][] */ 40,27,-76,14,-45,39,50,127,-16,110,-40,-28,6,45,-30,-7, 
  /* [71][0][][] */ -3,12,0,6,-4,-95,-14,23,-29,33,-94,23,-127,-6,61,74, 
  /* [72][0][][] */ 44,6,-127,24,31,42,4,83,-71,-56,11,-37,43,30,-28,0, 
  /* [73][0][][] */ -37,26,37,12,41,-24,-90,-127,8,-98,45,-26,32,-12,30,-17, 
  /* [74][0][][] */ -5,30,41,118,22,20,-84,86,-74,-18,-12,21,1,-98,8,-127, 
  /* [75][0][][] */ 28,6,-84,-2,-8,-42,-15,-62,93,8,-41,-9,51,127,-57,20, 
  /* [76][0][][] */ -8,-42,-20,14,-25,-27,-2,99,45,1,-24,-127,-27,-6,35,38, 
  /* [77][0][][] */ 1,66,-23,127,-24,13,74,40,8,73,-47,21,22,-68,-1,-60, 
  /* [78][0][][] */ -25,-40,39,-74,58,-12,7,65,42,0,63,-37,-31,127,1,11, 
  /* [79][0][][] */ -43,-106,-88,-35,-66,10,43,-60,127,-15,48,44,-13,60,24,-65, 
  /* [80][0][][] */ -39,-24,127,-68,64,19,31,-30,-69,-10,3,-121,-42,101,10,-24, 
  /* [81][0][][] */ -69,63,-114,20,71,-127,-28,62,12,-29,78,14,20,-10,28,-8, 
  /* [82][0][][] */ 127,16,-14,14,2,-127,-42,0,-20,1,-110,1,101,-11,11,38, 
  /* [83][0][][] */ -32,56,-118,-92,-53,7,33,-127,26,28,-13,-88,18,11,5,67, 
  /* [84][0][][] */ -33,46,62,-61,-13,-38,45,-127,-14,57,-11,0,64,28,94,61, 
  /* [85][0][][] */ -56,108,34,-127,-87,-52,-54,-26,-58,-10,-86,13,39,-22,-77,-12, 
  /* [86][0][][] */ -1,1,-23,-6,-8,-17,127,48,13,-36,20,-11,4,32,61,-26, 
  /* [87][0][][] */ -23,-21,-7,-111,9,-18,46,-28,-27,-1,11,-127,-11,-19,-11,-63, 
  /* [88][0][][] */ 104,-38,30,32,6,-119,-20,35,-63,37,-127,-68,25,47,14,16, 
  /* [89][0][][] */ 63,-48,-68,-22,8,-44,-20,-3,-63,33,-12,-114,127,20,15,-16, 
  /* [90][0][][] */ 15,-67,58,-78,60,-18,-87,71,42,-117,-66,-15,13,127,22,-105, 
  /* [91][0][][] */ -39,7,9,3,34,12,-6,-86,-4,73,-38,-127,-9,-4,-33,-1, 
  /* [92][0][][] */ -26,36,36,23,-7,-127,0,-3,-7,-11,-12,-7,11,-36,28,-2, 
  /* [93][0][][] */ 21,-28,127,-8,-75,81,57,-35,2,57,-64,3,-31,-24,36,8, 
  /* [94][0][][] */ 31,23,-14,-34,10,-28,-47,-14,-21,4,4,-33,127,-34,44,-16, 
  /* [95][0][][] */ 102,127,3,53,-74,1,-60,53,19,14,102,-55,-89,10,95,-90, 
};
const TfArray<4, int> tensor_dimension7 = { 4, { 96,1,1,16 } };
const TfArray<96, float> quant7_scale = { 96, { 0.00068762258160859346, 0.001216658391058445, 0.00051534420344978571, 0.00077752448851242661, 0.00056720047723501921, 0.00093057425692677498, 0.00043215512414462864, 0.00085254950681701303, 0.00053139630472287536, 0.00097717507742345333, 0.00019499093468766659, 0.00051000941311940551, 0.00051923660794273019, 0.0029018742498010397, 0.00068114220630377531, 0.00043887426727451384, 0.00031094995210878551, 0.0005742420325987041, 0.0011290813563391566, 0.0008862960385158658, 0.00035770112299360335, 0.0002018668019445613, 0.00047245726455003023, 0.00021527342323679477, 0.00031551302527077496, 0.001252724090591073, 0.0014416563790291548, 0.00073312065796926618, 0.00056227500317618251, 0.0010694968514144421, 0.00038232951192185283, 0.00066913396585732698, 0.00050145294517278671, 0.00055830506607890129, 0.00074222375405952334, 0.00059080345090478659, 0.00042344524990767241, 0.00035573216155171394, 0.00069798954064026475, 0.00097967870533466339, 0.00043759742402471602, 0.0014346576062962413, 0.00069267168873921037, 0.00054740137420594692, 0.00094486406305804849, 0.00038187767495401204, 0.00076024711597710848, 0.00060336361639201641, 0.0007092143059708178, 0.00042714423034340143, 0.00065469963010400534, 0.00051541224820539355, 0.0014402020024135709, 0.00047124255797825754, 0.00083573866868391633, 0.00068909116089344025, 0.0011385479010641575, 0.00085742800729349256, 0.0007521791267208755, 0.00045275274896994233, 0.0016950122080743313, 0.00082890718476846814, 0.00052258971845731139, 0.00068208848824724555, 0.0012525130296126008, 0.00080044730566442013, 0.00024968452635221183, 0.00057934550568461418, 0.0012691001174971461, 0.00082559924339875579, 0.00087050988804548979, 0.00058142893249168992, 0.0013326421612873673, 0.0011405767872929573, 0.00065136578632518649, 0.0004044931847602129, 0.00068305234890431166, 0.00028802710585296154, 0.00028042064514011145, 0.00051166251068934798, 0.00061894487589597702, 0.0004102048696950078, 0.000343304593116045, 0.0005470788455568254, 0.00046960383770056069, 0.00068970047868788242, 0.0014583396259695292, 0.00056714587844908237, 0.00025235960492864251, 0.00063126708846539259, 0.00074716884410008788, 0.00065622199326753616, 0.00074172933818772435, 0.0013083787634968758, 0.00066815008176490664, 0.00035606723395176232, } };
const TfArray<96, int> quant7_zero = { 96, { 0,0,0,0,0,0,0,0,0,0,0,0,0,0,0,0,0,0,0,0,0,0,0,0,0,0,0,0,0,0,0,0,0,0,0,0,0,0,0,0,0,0,0,0,0,0,0,0,0,0,0,0,0,0,0,0,0,0,0,0,0,0,0,0,0,0,0,0,0,0,0,0,0,0,0,0,0,0,0,0,0,0,0,0,0,0,0,0,0,0,0,0,0,0,0,0 } };
const TfLiteAffineQuantization quant7 = { (TfLiteFloatArray*)&quant7_scale, (TfLiteIntArray*)&quant7_zero, 0 };
const MODEL_SECTION(EI_MODEL_SECTION) ALIGN(16) int32_t tensor_data8[16] = { 894, 28482, -19694, -10233, -11781, 1225, 17968, -54353, -6642, 18881, 18735, 2191, 338, 2757, 817, 1575, };
const TfArray<1, int> tensor_dimension8 = { 1, { 16 } };
const TfArray<16, float> quant8_scale = { 16, { 0.00056590401800349355, 0.00034599076025187969, 0.00018119026208296418, 0.00017648978973738849, 0.00025127280969172716, 0.00035423049121163785, 0.0002936586388386786, 0.00030507962219417095, 0.00022604719561059028, 0.00028114067390561104, 0.00055216264445334673, 0.00073408032767474651, 0.00030705562676303089, 0.0002173586399294436, 0.0003965107025578618, 0.00030956606497056782, } };
const TfArray<16, int> quant8_zero = { 16, { 0,0,0,0,0,0,0,0,0,0,0,0,0,0,0,0 } };
const TfLiteAffineQuantization quant8 = { (TfLiteFloatArray*)&quant8_scale, (TfLiteIntArray*)&quant8_zero, 0 };
const MODEL_SECTION(EI_MODEL_SECTION) ALIGN(16) int8_t tensor_data9[16*1*1*96] = { 
  /* [0][0][][] */ -31,-25,-18,-20,2,-19,-47,-16,40,-7,-30,-27,-33,-31,-12,11,-11,7,4,-21,26,-5,25,-2,19,-26,-34,127,28,-49,51,5,-18,23,-13,-20,-36,-1,-27,-3,-22,19,-15,20,-14,2,8,30,7,15,-24,-12,36,4,-24,57,29,30,-28,-49,-27,19,-1,-52,-36,-89,-2,27,5,27,20,-31,-22,-50,-16,-9,-37,51,30,-3,-30,-44,22,12,-35,6,-4,-122,-26,-47,-12,24,39,-65,-54,16, 
  /* [1][0][][] */ 28,-76,-94,-74,95,25,56,30,10,-93,-75,-50,6,-53,-35,15,-81,28,69,39,38,34,14,-44,6,-29,-60,-88,7,-35,-56,63,-39,57,-24,-19,-17,-28,20,19,-24,44,-49,-32,-66,41,15,26,-7,-34,-1,-56,-50,3,21,31,-8,-26,-51,-65,22,-15,-1,-13,-53,75,8,-2,-45,-26,-53,40,27,-115,-55,-18,14,-60,56,-7,-24,-45,30,3,-66,71,-19,-2,4,-80,-22,5,7,-27,-10,127, 
  /* [2][0][][] */ 2,30,-39,-7,99,127,30,63,-17,-54,21,36,18,20,-18,-5,31,22,-29,43,37,-48,75,42,20,69,24,-27,8,12,23,-29,52,39,-15,41,-98,-86,37,32,-19,-59,44,31,28,-2,34,49,-53,-7,9,27,52,-35,31,82,-6,-37,1,9,48,52,49,12,-8,3,-43,49,-33,13,-5,-3,-58,-44,33,78,83,31,-22,22,53,-6,37,23,-31,-6,16,72,-2,62,24,-50,-14,5,-83,12, 
  /* [3][0][][] */ 83,-3,78,-42,68,-127,-18,-11,-34,-57,9,-61,-27,24,8,114,3,-35,73,17,96,18,61,-1,83,-39,-20,46,75,20,-56,98,-98,-26,23,-5,-19,-49,-19,25,-92,-18,74,-10,-1,95,-93,-89,-30,-73,-85,41,39,-72,-14,13,-112,104,100,47,32,71,-26,-57,54,43,-17,-108,41,-5,21,-113,55,-45,31,-47,-3,22,73,46,-7,-80,42,-27,8,-22,13,43,-2,-25,38,99,51,71,61,-74, 
  /* [4][0][][] */ -20,-10,10,-37,106,36,-5,2,-52,-28,-19,-29,-67,48,-22,96,0,-81,-83,96,4,30,11,-1,-11,-21,4,-14,1,2,70,-6,127,-11,-1,19,41,3,11,-42,-37,-10,-16,-59,32,-11,27,6,34,1,14,-3,-53,-27,9,-17,56,-23,-45,62,25,47,60,50,19,53,-43,-14,-70,7,28,66,-12,-82,-70,-2,5,0,81,-25,-11,-48,-6,-29,-72,0,70,54,-44,57,45,-74,-22,36,49,-26, 
  /* [5][0][][] */ 11,-1,10,32,25,-34,46,-17,-39,-20,8,24,17,41,-16,47,-4,-8,-13,16,8,-17,-63,48,26,15,50,-48,-2,27,16,17,19,-1,29,-19,52,49,-22,-14,0,-3,37,6,5,22,-19,-45,4,-29,-2,6,-3,-32,15,3,-47,-3,3,21,60,8,-17,16,-19,52,10,72,9,52,-9,38,14,27,-8,37,-37,-22,-17,16,17,3,-13,16,-13,13,-33,127,37,62,23,-13,17,41,-23,-13, 
  /* [6][0][][] */ 24,-74,45,-16,-12,-25,44,32,-20,8,18,-62,-36,27,-50,49,27,4,-21,8,-59,8,-16,-10,-2,7,39,7,-9,27,53,-25,82,-31,76,13,-14,22,-6,-98,-18,111,31,-39,45,-32,-55,-6,18,4,-42,83,5,-28,4,-22,-50,-65,9,4,10,84,5,-105,38,-17,-18,-32,43,14,127,-16,-23,11,-17,10,-87,0,-3,32,68,61,-11,-6,23,-18,25,46,33,46,71,-31,17,21,11,-58, 
  /* [7][0][][] */ -8,112,61,21,127,10,43,-27,-15,-57,-4,16,-17,33,28,13,27,-3,12,17,44,-43,17,1,-28,16,54,27,-3,-5,38,-6,40,-25,-21,26,9,43,-21,79,-35,33,13,30,13,-44,34,3,-7,-26,33,23,30,-21,-49,32,-3,31,-33,15,-2,-7,-34,-12,-38,68,-39,-64,-2,-7,41,55,6,-19,22,-12,40,79,14,-33,-20,0,2,0,31,29,3,15,-14,59,-20,-51,-26,7,43,-46, 
  /* [8][0][][] */ -9,-20,75,26,-82,-31,22,18,-3,54,65,39,-20,50,21,-22,-54,26,-36,11,-47,-31,-127,56,-4,1,102,-3,8,25,26,8,84,-22,22,12,-2,-4,30,41,4,-26,13,43,-3,4,-1,-19,-67,-21,31,71,-12,-2,0,34,-27,-47,-92,6,30,4,-37,-26,2,90,-11,-39,52,20,12,-28,37,57,72,-27,7,-30,-46,6,-49,36,-33,14,47,-19,77,64,50,6,45,10,25,26,58,-19, 
  /* [9][0][][] */ 10,-114,-25,41,76,80,-12,10,33,-58,30,89,-34,12,89,-127,-7,16,-23,-6,-14,-45,26,-10,-40,-10,-4,6,-29,24,2,6,-4,13,-70,-2,-10,-23,14,104,9,-32,-14,91,23,-10,-31,0,12,-9,11,-39,55,28,-36,-46,-25,68,-52,9,28,-2,-41,96,-71,-5,10,-1,19,56,0,-52,14,-6,11,54,41,-58,-4,5,-10,-17,19,30,52,-91,43,-30,-10,-21,-58,-3,-47,-32,-16,-34, 
  /* [10][0][][] */ -59,-41,-4,-15,-29,3,59,-2,15,27,42,66,24,-8,-3,0,0,44,-54,-14,-3,9,3,24,-22,-1,41,-100,22,-44,60,-23,9,14,15,24,17,64,-9,-34,34,-21,39,-46,27,-9,14,-14,12,25,-8,14,-49,-22,0,-6,1,8,-7,-40,27,3,-27,15,-46,82,-7,-10,-2,-46,5,-5,-11,10,4,31,-25,29,-48,23,-2,15,2,18,34,-27,5,127,16,21,31,-24,7,-2,54,-46, 
  /* [11][0][][] */ -52,9,9,-26,28,-42,-3,14,-56,9,19,43,23,33,-30,3,41,1,-50,-16,-1,-32,-11,-3,33,22,87,-2,4,28,-38,7,4,-5,-8,5,9,0,11,35,-8,-29,6,-2,73,27,31,-1,50,9,6,47,4,-59,18,24,-86,-25,-7,-27,9,1,-9,27,-21,-6,1,12,3,12,24,30,-6,21,31,-14,-5,62,-92,53,-16,8,-40,-44,127,-1,32,3,21,50,-11,-37,-30,52,-3,-20, 
  /* [12][0][][] */ -1,22,-34,2,28,16,-1,-19,21,-4,-19,-26,9,-38,50,10,-34,-19,46,-35,-45,-13,-31,44,-7,36,-58,74,-29,21,-13,-10,-37,36,-18,15,-2,-11,11,2,9,-36,-25,2,-46,0,8,54,-29,22,-17,-33,-14,-7,-8,-54,29,13,39,-1,-31,-39,27,41,73,-90,19,39,-20,-127,-43,40,23,2,-8,92,20,9,27,-9,-39,5,-27,-1,-43,17,-21,-70,-46,-35,-7,25,-18,-1,-5,48, 
  /* [13][0][][] */ -77,80,4,19,-39,-47,-20,-14,-38,-8,40,13,55,31,-28,35,-4,0,-28,6,-3,5,19,-58,26,32,7,30,21,-17,-33,-114,-60,-20,17,7,0,21,6,-8,-35,57,-21,8,54,22,-25,19,71,-21,-1,59,92,-26,73,-55,-23,62,63,39,9,3,-9,-13,7,-11,0,-26,54,23,28,-127,9,-14,-45,30,61,51,-4,-23,57,1,-10,-7,3,-29,88,-6,-25,-10,15,36,47,-15,-29,-20, 
  /* [14][0][][] */ -29,22,-13,-88,46,35,-49,29,-123,-28,-11,19,-27,-51,-117,-31,-90,2,88,26,77,-30,34,-127,-8,7,-23,-63,15,-36,-13,-59,-83,-63,17,-4,-43,-18,-25,-29,-23,57,-68,-15,-68,28,6,9,124,-38,21,-5,19,36,-120,20,-32,23,-106,-16,2,61,76,59,44,35,-30,-21,-86,6,66,57,66,-12,-21,48,99,-74,-19,-97,14,-23,-15,43,55,-64,-52,-6,-59,10,-3,54,36,26,24,-17, 
  /* [15][0][][] */ -33,-81,16,-47,31,-12,-10,-52,-51,37,16,-4,49,12,33,-44,-72,-6,-4,23,-39,-22,-89,-67,-33,24,26,12,2,0,68,-127,10,46,32,17,12,32,-119,32,3,-87,9,61,-2,-46,17,17,76,-16,-24,-122,44,81,24,30,12,-27,-1,57,22,4,50,-31,-4,12,-27,7,4,29,44,36,-47,22,26,-19,2,18,-8,23,16,67,-8,99,11,-86,-31,-15,-28,81,49,103,-14,16,23,-54, 
};
const TfArray<4, int> tensor_dimension9 = { 4, { 16,1,1,96 } };
const TfArray<16, float> quant9_scale = { 16, { 0.024050919339060783, 0.014704606495797634, 0.0077005862258374691, 0.007500816136598587, 0.0106790941208601, 0.015054795891046524, 0.012480491772294044, 0.012965883128345013, 0.0096070058643817902, 0.011948478408157825, 0.023466913029551506, 0.031198414042592049, 0.013049863278865814, 0.0092377420514822006, 0.016851704567670822, 0.013156557455658913, } };
const TfArray<16, int> quant9_zero = { 16, { 0,0,0,0,0,0,0,0,0,0,0,0,0,0,0,0 } };
const TfLiteAffineQuantization quant9 = { (TfLiteFloatArray*)&quant9_scale, (TfLiteIntArray*)&quant9_zero, 0 };
const MODEL_SECTION(EI_MODEL_SECTION) ALIGN(16) int32_t tensor_data10[96] = { 18888, 64524, -522, 2452, 24351, -5221, -800, -1683, 6459, 19295, -3645, -842, 715, 5892, 6861, -9244, -4169, -568, 647, 18575, -11891, 10647, -1196, 6461, 30796, -352, -3719, 24160, 13194, -18425, 4505, 21167, 22945, -12333, 3060, -413, -1300, 587, 2640, -10399, -5364, -833, -19437, 2108, 31318, -1935, 11630, 314, -18565, 2126, -96, 775, -3010, 21930, -4685, 20698, 18688, -518, 34704, -989, -10111, -2039, 3414, -545, -690, 8044, -764, -7685, -3362, 3573, 293, -1140, 1088, 641, -3056, -5356, 326, -345, 43855, -7841, -8409, -10945, -1145, 883, 47008, -13968, -9900, -26900, -5919, 7701, -2799, 26252, -526, -4056, -4966, 736, };
const TfArray<1, int> tensor_dimension10 = { 1, { 96 } };
const TfArray<96, float> quant10_scale = { 96, { 0.00011764049850171432, 8.7146239820867777e-05, 8.5985426267143339e-05, 0.000166468889801763, 0.00012487353524193168, 0.00014510966138914227, 6.7385226429905742e-05, 7.040006312308833e-05, 0.0002554394886828959, 0.00012109729868825525, 0.00032203370938077569, 0.00011285851360298693, 0.0002446361759211868, 0.00017951084009837359, 0.00027197768213227391, 0.00015608295507263392, 0.00019959945348091424, 0.00013567412679549307, 0.00021717068739235401, 5.0154641940025613e-05, 6.8296532845124602e-05, 5.6256118114106357e-05, 0.00012463619350455701, 0.00011040001845685765, 9.1412788606248796e-05, 7.6783886470366269e-05, 0.0001342563919024542, 0.00011230711970711127, 7.4199982918798923e-05, 0.0004304723406676203, 0.00027526234043762088, 0.00028469183598645031, 0.00013000010221730918, 0.00013187518925406039, 0.00017548413597978652, 0.00040633583557792008, 0.00033595002605579793, 0.00019063263607677072, 0.0001532109163235873, 6.1908984207548201e-05, 0.00015968160005286336, 0.00018757393991108984, 0.00023912623873911798, 7.9610625107306987e-05, 0.00036263905349187553, 8.7909356807358563e-05, 8.0790756328497082e-05, 0.00027182174380868673, 0.00045155856059864163, 0.00011356028699083254, 0.00044074348988942802, 0.00012204578524688259, 0.00017048562585841864, 0.00012019388668704778, 0.00017908313020598143, 0.00010508827108424157, 0.00013770729128737003, 0.00033429483301006258, 5.5694421462249011e-05, 0.00017983467841986567, 0.00023433157184626907, 0.00021806011500302702, 0.00011404992983443663, 0.00013858429156243801, 0.00011674272536765784, 0.00015424781304318458, 0.00022232101764529943, 0.00029594736406579614, 0.00021032711083535105, 0.00012651570432353765, 0.00013425754150375724, 9.2699730885215104e-05, 0.00024826620938256383, 0.00013125661644153297, 0.00024344919074792415, 0.00036257132887840271, 0.00012171599519206211, 7.5808660767506808e-05, 5.887397492188029e-05, 0.00016839556337799877, 0.00015200486814137548, 0.00019223190611228347, 0.00013422618212644011, 0.00020166116883046925, 7.8415840107481927e-05, 0.00010336042760172859, 6.715054769301787e-05, 0.00040037996950559318, 0.00033882312709465623, 9.7891090263146907e-05, 0.00035019963979721069, 4.5684773795073852e-05, 9.9297612905502319e-05, 0.00012937196879647672, 0.00026499986415728927, 0.00032621450372971594, } };
const TfArray<96, int> quant10_zero = { 96, { 0,0,0,0,0,0,0,0,0,0,0,0,0,0,0,0,0,0,0,0,0,0,0,0,0,0,0,0,0,0,0,0,0,0,0,0,0,0,0,0,0,0,0,0,0,0,0,0,0,0,0,0,0,0,0,0,0,0,0,0,0,0,0,0,0,0,0,0,0,0,0,0,0,0,0,0,0,0,0,0,0,0,0,0,0,0,0,0,0,0,0,0,0,0,0,0 } };
const TfLiteAffineQuantization quant10 = { (TfLiteFloatArray*)&quant10_scale, (TfLiteIntArray*)&quant10_zero, 0 };
const MODEL_SECTION(EI_MODEL_SECTION) ALIGN(16) int8_t tensor_data11[1*3*3*96] = { 
  /* [0][0][][] */ -46,-72,-14,127,23,73,72,-54,-12,-15,-11,-3,-32,-6,36,2,-13,-40,30,24,24,-127,127,6,-92,12,51,-26,-118,-127,35,26,4,23,58,-24,-32,-5,29,-7,-17,28,-104,70,23,-63,35,46,-19,45,-21,19,3,-5,13,43,-97,-45,-70,-22,-10,2,10,38,71,-23,74,13,-6,16,19,127,26,22,22,-4,-9,13,127,-6,-12,12,-26,22,117,28,-87,-21,3,-34,-15,-45,5,-25,-15,30, 127,-127,74,106,-42,127,35,-111,65,7,-16,127,127,-105,-15,20,10,127,127,-105,127,-75,81,69,-127,-119,-67,-32,-49,43,-61,-19,-89,49,-127,-91,-44,-11,-50,79,-4,127,127,75,-54,-106,-116,-52,-16,-127,43,81,69,-28,39,74,-44,44,-76,-113,-46,-35,-64,68,73,-56,31,29,-73,38,-17,87,120,127,9,24,2,54,-31,53,65,127,127,-23,-10,83,-122,127,-114,-97,4,-127,-90,-127,-36,111, -73,-14,27,-87,15,-22,59,-4,75,-32,-27,24,-19,-11,-10,-7,-12,-13,9,-3,-20,-102,31,0,-119,94,4,-53,113,47,-18,13,-5,18,11,-31,-10,36,19,24,21,12,-118,66,15,-15,34,11,-16,7,-21,2,-19,3,-3,21,-61,11,-45,49,1,43,27,3,-8,-38,-34,27,11,0,-5,37,12,-30,-3,1,-9,-11,-83,1,-20,-25,-16,4,-111,8,-40,-26,-45,29,-27,-37,30,-27,-15,2, 
  /* [0][1][][] */ -60,-75,72,-42,-49,97,18,127,-48,-20,2,-108,25,-124,77,37,-5,-56,-14,89,61,-56,49,44,-81,-22,127,-20,-21,60,117,-102,-127,89,-86,-60,-34,31,-29,109,-54,-23,-3,41,-50,127,-25,66,14,89,18,-5,17,-50,24,26,127,122,-87,-87,127,-27,-34,127,73,-34,-19,-1,127,39,127,97,-38,102,0,8,16,12,-27,5,-40,117,-79,109,-2,41,-66,28,76,-127,-29,-6,127,-65,-22,5, 68,120,60,-121,127,81,83,39,-127,127,127,-30,-63,-127,-127,127,127,-61,-126,-43,122,92,-120,127,-106,-103,-49,127,-127,105,-127,-127,-74,127,102,127,127,-127,-98,127,-68,-92,107,-127,-127,-28,-127,-127,127,-107,82,41,127,127,127,-127,106,-127,-127,127,15,-71,-127,-98,-127,127,-127,127,-118,-127,-99,-86,-127,-82,127,127,-127,127,-76,127,127,33,-42,-127,57,127,98,49,127,20,127,8,-72,37,127,-127, -50,-13,-52,38,-57,-100,36,-23,22,-31,-29,98,1,104,12,14,-6,70,-4,127,7,-63,-39,7,-62,115,-77,-19,-72,-17,13,-63,-59,44,4,-18,-24,43,-65,44,127,-1,-40,20,-42,-54,15,41,6,110,-14,3,-36,-69,5,15,100,7,-5,22,-33,127,90,-50,-43,14,36,-12,-70,124,-18,-85,2,-57,-11,-17,29,14,73,-40,-67,-44,59,18,-48,-18,75,21,18,74,-43,16,-47,100,-25,-3, 
  /* [0][2][][] */ -67,-3,-7,-25,14,-38,58,26,57,-28,-38,-7,16,16,-28,8,-10,66,11,4,-65,-60,2,-10,-18,-52,45,-65,88,35,21,27,11,-7,-10,-45,-5,38,-2,11,-20,-4,-65,99,1,34,9,38,-16,-35,9,-22,20,0,12,8,-76,27,-23,15,16,4,-27,-4,-3,-45,-50,14,-25,9,27,29,16,-22,23,0,19,1,-74,-10,-6,-11,18,15,-127,14,8,-48,-62,-47,-29,-47,11,58,-17,-5, 119,28,-127,-39,-72,-23,37,32,-60,-29,-20,-104,-77,122,-14,47,-1,-52,-11,-118,105,-45,-36,-1,-96,127,-47,22,-41,-23,-12,-8,-49,15,25,7,-23,-24,127,68,10,-13,69,-45,-42,75,-70,-43,-32,-9,-127,-127,-50,-26,-5,33,-64,-6,13,37,-6,-13,7,-46,-56,36,62,-21,113,114,-21,-72,13,-61,2,-1,101,2,53,25,14,-94,-50,3,1,3,127,41,-64,52,-23,-109,44,81,-9,28, -54,10,-20,25,16,-67,-127,5,-8,-8,-18,3,13,-26,17,3,-10,-13,8,20,-48,-54,16,-5,10,-103,20,5,-42,-40,-10,12,42,-23,-9,-24,-31,5,40,-44,21,1,-49,-40,0,66,21,14,-9,-8,7,-12,18,6,-1,-8,-61,-9,-8,-35,-11,15,77,-9,34,-1,-5,34,7,11,-4,18,-15,11,3,11,38,1,76,-12,5,-12,-5,-18,70,1,39,-41,53,46,-19,-66,-7,5,-13,-13, 
};
const TfArray<4, int> tensor_dimension11 = { 4, { 1,3,3,96 } };
const TfArray<96, float> quant11_scale = { 96, { 0.0049997209571301937, 0.0037037150468677282, 0.0036543805617839098, 0.0070749279111623764, 0.0053071253933012486, 0.0061671603471040726, 0.0028638720978051424, 0.0029920025262981653, 0.010856178589165211, 0.0051466352306306362, 0.013686432503163815, 0.0047964868135750294, 0.010397037491202354, 0.0076292105950415134, 0.011559051461517811, 0.0066335257142782211, 0.0084829768165946007, 0.0057661505416035652, 0.0092297540977597237, 0.002131572226062417, 0.002902602544054389, 0.0023908850271254778, 0.0052970382384955883, 0.0046920008026063442, 0.0038850435521453619, 0.0032633151859045029, 0.0057058962993323803, 0.0047730524092912674, 0.0031534992158412933, 0.018295073881745338, 0.011698649264872074, 0.012099402956664562, 0.005525004118680954, 0.0056046955287456512, 0.0074580754153430462, 0.017269272357225418, 0.014277876354753971, 0.0081018870696425438, 0.0065114637836813927, 0.0026311317924410105, 0.0067864679731428623, 0.0079718921333551407, 0.010162864811718464, 0.0033834513742476702, 0.015412159264087677, 0.0037361476570367813, 0.0034336070530116558, 0.011552424170076847, 0.019191239029169083, 0.0048263119533658028, 0.018731597810983658, 0.005186945665627718, 0.0072456388734281063, 0.0051082400605082512, 0.0076110330410301685, 0.0044662514701485634, 0.0058525600470602512, 0.014207529835402966, 0.0023670129012316465, 0.007642973680049181, 0.0099590914323925972, 0.0092675546184182167, 0.0048471218906342983, 0.0058898325078189373, 0.0049615656025707722, 0.0065555316396057606, 0.0094486428424715996, 0.012577762827277184, 0.0089389020577073097, 0.0053769173100590706, 0.0057059456594288349, 0.0039397384971380234, 0.010551313869655132, 0.0055784061551094055, 0.010346590541303158, 0.015409281477332115, 0.0051729297265410423, 0.0032218680717051029, 0.0025021438486874104, 0.0071568111889064312, 0.0064602070488035679, 0.008169855922460556, 0.0057046129368245602, 0.0085705993697047234, 0.0033326731063425541, 0.0043928180821239948, 0.0028538980986922979, 0.017016148194670677, 0.014399982988834381, 0.0041603711433708668, 0.014883484691381454, 0.001941602909937501, 0.0042201485484838486, 0.0054983086884021759, 0.011262494139373302, 0.013864115811884403, } };
const TfArray<96, int> quant11_zero = { 96, { 0,0,0,0,0,0,0,0,0,0,0,0,0,0,0,0,0,0,0,0,0,0,0,0,0,0,0,0,0,0,0,0,0,0,0,0,0,0,0,0,0,0,0,0,0,0,0,0,0,0,0,0,0,0,0,0,0,0,0,0,0,0,0,0,0,0,0,0,0,0,0,0,0,0,0,0,0,0,0,0,0,0,0,0,0,0,0,0,0,0,0,0,0,0,0,0 } };
const TfLiteAffineQuantization quant11 = { (TfLiteFloatArray*)&quant11_scale, (TfLiteIntArray*)&quant11_zero, 3 };
const MODEL_SECTION(EI_MODEL_SECTION) ALIGN(16) int32_t tensor_data12[96] = { 1522, 7329, 14720, 14104, 15414, -4505, -2164, 6833, 22435, -3527, 11770, 7801, 7725, 21362, 31438, 1924, 2383, 4297, 16811, 5253, -122, 352, 9467, -1664, 5777, 393, 12921, 7506, 5876, 62223, 60631, 14265, 11533, -509, 20619, 2613, 1180, 4201, 24773, -850, 15311, 6509, 30466, -2558, 29143, 6572, 7134, 15846, 83103, 11789, -646, 6234, -4120, -257, -3326, 9733, -124, 18628, 9876, 16224, 5611, 19319, 11810, 5088, 7273, 10402, 3268, -3394, 7411, -3352, 4241, 13600, 40650, 4851, -4284, -5580, 8448, 854, 2197, -1311, 20372, 17852, 3975, 21796, 3432, 636, 13328, 69938, 10653, 17109, 8018, -221, 4746, 7187, 4321, 14781, };
const TfArray<1, int> tensor_dimension12 = { 1, { 96 } };
const TfArray<96, float> quant12_scale = { 96, { 0.00024069131177384406, 0.00019126749248243868, 0.00013226171722635627, 0.00016432389384135604, 0.00018860245472751558, 0.00023992732167243958, 0.00038326423964463174, 0.00022617870126850903, 0.00010045889212051407, 0.00041874730959534645, 0.0002279442414874211, 0.00011469424498500302, 0.00017074187053367496, 0.00011183576134499162, 7.7529890404548496e-05, 0.00026175854145549238, 0.00019312251242808998, 0.00028063255012966692, 0.00013293194933794439, 0.00020674672850873321, 0.00024745042901486158, 0.00044417532626539469, 0.00020096723164897412, 0.00042977163684554398, 0.00046079722233116627, 0.00021765478595625609, 0.00016375955601688474, 0.00017367933469358832, 0.00028224571724422276, 5.7472894695820287e-05, 4.6543940698029473e-05, 0.00017078353266697377, 0.00014970175107009709, 0.00033529082429595292, 9.9053642770741135e-05, 0.00021231101709417999, 0.00035386902163736522, 0.00034560725907795131, 0.00011356124741723761, 0.00063575245440006256, 0.00012756932119373232, 0.00023225207405630499, 8.7818872998468578e-05, 0.00037779920967295766, 0.00011366198305040598, 0.00022668307065032423, 0.0002364550600759685, 0.00016557751223444939, 5.0178739911643788e-05, 0.00017671992827672511, 0.00014701912004966289, 0.0002762264630291611, 0.00027415447402745485, 0.0001677950203884393, 0.00033430950134061277, 0.00012261446681804955, 0.00018593075219541788, 9.6052528533618897e-05, 0.00021276311599649489, 9.7905955044552684e-05, 0.00028747192118316889, 7.8651290095876902e-05, 0.00012796094233635813, 0.00018131065007764846, 0.00034500329638831317, 0.00019523160881362855, 0.00037157340557314456, 0.0003765118308365345, 0.0002195176639361307, 0.00022166782582644373, 0.00025476104929111898, 0.00011176384577993304, 5.2836221584584564e-05, 0.00020816856704186648, 0.00035781835322268307, 0.00023456830240320414, 0.0002020967222051695, 0.00023528964084107429, 0.00036107422783970833, 0.00028694301727227867, 9.8330776381772012e-05, 9.5716073701623827e-05, 0.00020734447753056884, 9.0347850346006453e-05, 0.00034027110086753964, 0.00018821728008333594, 0.00018127571092918515, 5.4295116569846869e-05, 0.00012759845412801951, 0.00013183940609451383, 0.00015892722876742482, 0.00033085374161601067, 0.00030803197296336293, 0.00020780535123776644, 0.00025189053849317133, 0.00010927575203822926, } };
const TfArray<96, int> quant12_zero = { 96, { 0,0,0,0,0,0,0,0,0,0,0,0,0,0,0,0,0,0,0,0,0,0,0,0,0,0,0,0,0,0,0,0,0,0,0,0,0,0,0,0,0,0,0,0,0,0,0,0,0,0,0,0,0,0,0,0,0,0,0,0,0,0,0,0,0,0,0,0,0,0,0,0,0,0,0,0,0,0,0,0,0,0,0,0,0,0,0,0,0,0,0,0,0,0,0,0 } };
const TfLiteAffineQuantization quant12 = { (TfLiteFloatArray*)&quant12_scale, (TfLiteIntArray*)&quant12_zero, 0 };
const MODEL_SECTION(EI_MODEL_SECTION) ALIGN(16) int8_t tensor_data13[96*1*1*16] = { 
  /* [0][0][][] */ 64,40,-67,99,78,45,93,19,37,38,-121,80,7,-98,29,-127, 
  /* [1][0][][] */ 31,42,20,-2,38,-25,127,-103,16,101,-37,-51,-18,-57,10,23, 
  /* [2][0][][] */ -101,15,43,5,-41,-28,45,127,-29,27,95,-45,-70,2,-3,-65, 
  /* [3][0][][] */ -116,33,21,39,-84,-14,35,127,13,43,-62,49,99,-77,-34,-66, 
  /* [4][0][][] */ -42,12,50,100,26,111,-18,16,42,-27,-13,17,-13,24,-127,0, 
  /* [5][0][][] */ 2,-3,15,-30,-22,-18,-17,-37,-87,127,-75,-122,-17,-4,-75,-16, 
  /* [6][0][][] */ 8,-16,49,-34,54,76,-50,-69,-15,16,100,-34,127,-65,-30,-64, 
  /* [7][0][][] */ 42,46,107,-34,-59,-15,-22,-43,-127,37,-103,-3,-43,-84,87,2, 
  /* [8][0][][] */ -40,37,3,83,-82,29,34,44,-9,-28,66,-127,-49,29,-85,-102, 
  /* [9][0][][] */ -15,-64,20,47,-17,30,17,19,127,35,74,10,21,31,-52,-47, 
  /* [10][0][][] */ 10,-40,-18,-25,-127,-25,-100,-11,18,72,28,-43,32,20,98,-59, 
  /* [11][0][][] */ 90,-47,-54,1,-37,-35,-66,-127,-67,17,-109,-88,46,-36,46,-42, 
  /* [12][0][][] */ -11,-9,-7,-50,-47,-50,-100,1,-22,-13,-16,37,22,88,127,86, 
  /* [13][0][][] */ -1,-108,-127,69,-60,-52,-2,14,72,29,-44,-9,-19,22,91,99, 
  /* [14][0][][] */ -17,-11,3,12,-12,30,-4,127,17,3,49,-26,36,65,4,77, 
  /* [15][0][][] */ 33,-44,-3,85,34,11,96,-5,-6,-127,-14,-19,34,-29,-13,-71, 
  /* [16][0][][] */ 50,-44,-14,1,28,14,4,-88,127,39,104,-31,13,73,97,68, 
  /* [17][0][][] */ -25,-34,41,69,127,27,-30,-47,95,-44,-1,6,39,7,-39,50, 
  /* [18][0][][] */ -39,27,-14,72,-127,25,-47,23,-78,-99,11,-70,-18,-42,26,-8, 
  /* [19][0][][] */ 48,-40,3,-99,41,-56,-89,56,22,-48,82,76,-68,2,47,127, 
  /* [20][0][][] */ 79,-34,116,-46,22,0,-55,38,-23,-41,114,-51,-2,30,-85,127, 
  /* [21][0][][] */ -26,17,-16,-18,-5,-16,-43,-65,-43,86,-14,-3,-127,-52,-2,-22, 
  /* [22][0][][] */ 18,-8,17,11,1,-53,-6,-31,-127,-27,3,-56,12,3,49,-25, 
  /* [23][0][][] */ 25,-5,38,-10,12,40,4,14,-21,-13,63,-39,127,8,-5,-69, 
  /* [24][0][][] */ 17,-29,-19,-100,-6,-2,8,-17,-86,-34,-36,-127,33,-83,84,-4, 
  /* [25][0][][] */ -127,-40,-105,13,-44,-63,-94,-44,-103,-16,-58,-37,-3,-88,87,10, 
  /* [26][0][][] */ -34,-21,-1,-94,127,67,98,1,92,7,120,17,48,67,27,49, 
  /* [27][0][][] */ 118,-7,46,-63,11,-44,9,-23,-35,13,-127,53,29,-38,7,50, 
  /* [28][0][][] */ -108,9,-127,-34,-12,8,78,-58,30,96,-7,-21,-3,-41,-2,9, 
  /* [29][0][][] */ -45,-63,-26,127,-48,44,-36,-29,20,-24,-67,5,-4,-62,10,-79, 
  /* [30][0][][] */ 20,-16,89,-45,77,58,-12,55,19,-87,80,6,10,-7,-42,127, 
  /* [31][0][][] */ -25,-68,20,-66,-11,-28,22,-2,18,36,127,3,-37,65,72,68, 
  /* [32][0][][] */ -1,73,-5,91,-127,52,-107,-15,-83,-58,0,99,-30,78,8,82, 
  /* [33][0][][] */ 41,2,7,127,-12,6,6,-77,-50,40,60,-38,-9,-10,18,52, 
  /* [34][0][][] */ 98,-13,-46,-95,88,-83,-124,-83,-65,127,-71,55,-47,-27,-24,-9, 
  /* [35][0][][] */ 127,45,20,20,47,-62,-52,-35,-96,-44,-32,35,29,-29,36,-11, 
  /* [36][0][][] */ 9,-7,-127,-26,43,-7,-7,-10,-19,0,17,-20,8,-9,15,8, 
  /* [37][0][][] */ -11,0,127,15,-2,50,38,12,14,27,-5,16,-23,1,-27,2, 
  /* [38][0][][] */ -127,16,-25,38,20,77,38,7,19,11,75,-4,-13,-9,-1,16, 
  /* [39][0][][] */ -9,-4,9,10,26,-15,-127,37,12,15,-18,-48,9,-12,8,13, 
  /* [40][0][][] */ 57,88,-14,127,51,18,17,-4,-32,-2,-33,12,60,55,-59,-23, 
  /* [41][0][][] */ -3,42,-61,-5,-37,36,127,67,-28,69,-54,27,25,53,53,-44, 
  /* [42][0][][] */ 75,-7,-26,-45,46,-6,-85,10,11,-127,39,60,-35,59,-30,42, 
  /* [43][0][][] */ -30,-7,-23,-5,-18,-15,-80,-84,12,35,19,-1,-127,-11,44,5, 
  /* [44][0][][] */ 9,9,-32,27,0,18,8,-42,127,15,-3,57,19,54,-2,15, 
  /* [45][0][][] */ -85,-127,9,-45,75,38,-38,28,36,-30,-67,-7,57,57,35,64, 
  /* [46][0][][] */ -11,30,-36,60,-42,-27,-22,-74,-127,9,-48,11,18,37,-2,-9, 
  /* [47][0][][] */ 7,-27,-94,127,38,93,-2,-10,-66,29,35,42,-6,-27,51,-44, 
  /* [48][0][][] */ -59,22,62,-127,36,4,19,40,0,-8,71,-9,5,94,46,85, 
  /* [49][0][][] */ -45,54,-8,50,-52,46,-113,-56,12,-89,-120,-48,41,-87,-19,-127, 
  /* [50][0][][] */ 13,114,31,-88,127,-3,-5,43,126,-28,-26,70,29,1,-12,-56, 
  /* [51][0][][] */ 34,-22,22,26,41,6,-55,-127,14,-78,-5,18,9,-14,23,-15, 
  /* [52][0][][] */ 69,16,-20,57,40,-25,-60,82,-45,127,-91,-42,99,63,-44,10, 
  /* [53][0][][] */ -20,127,58,-118,41,31,47,-1,-30,-56,-1,88,25,-40,-85,24, 
  /* [54][0][][] */ -2,-4,3,60,22,-45,27,-22,16,42,-22,-26,-11,127,-24,-2, 
  /* [55][0][][] */ -127,120,96,23,40,-30,-63,-9,-12,54,127,-72,-68,-34,99,-6, 
  /* [56][0][][] */ 17,-1,-8,-76,111,-19,10,2,32,-16,29,124,40,2,127,50, 
  /* [57][0][][] */ -24,-45,-46,127,-63,15,65,103,14,35,22,-84,-5,87,-10,9, 
  /* [58][0][][] */ 17,121,5,-127,-5,15,16,18,79,11,31,66,-30,-79,-6,72, 
  /* [59][0][][] */ 25,91,76,-89,24,53,45,23,2,71,74,-86,-62,-78,-127,-21, 
  /* [60][0][][] */ 17,-35,97,-91,1,127,55,1,26,-7,-33,-34,67,39,9,45, 
  /* [61][0][][] */ -67,47,-78,-85,-54,67,73,88,-3,26,-15,45,43,127,43,0, 
  /* [62][0][][] */ -4,70,-94,-69,-54,-48,-127,-49,5,-30,-26,-25,88,-106,123,68, 
  /* [63][0][][] */ -61,-25,25,-127,27,-38,-122,-115,-52,60,-11,42,62,-6,12,-63, 
  /* [64][0][][] */ -5,1,28,24,43,30,-54,-106,19,-127,14,-4,-1,-36,17,-18, 
  /* [65][0][][] */ -127,4,9,-26,-30,62,19,-47,-67,21,44,-45,-17,26,-24,-68, 
  /* [66][0][][] */ 15,-30,80,-5,-71,-14,-38,35,-8,-18,105,-31,-3,39,-127,24, 
  /* [67][0][][] */ 13,34,-62,5,25,-35,-40,-70,22,-127,-26,-69,-91,9,-39,1, 
  /* [68][0][][] */ -14,-20,-91,42,-37,-96,68,-13,56,58,67,6,-77,127,37,26, 
  /* [69][0][][] */ -73,60,-68,32,28,-98,98,106,59,40,73,36,127,12,-4,13, 
  /* [70][0][][] */ 32,35,-34,-78,-86,12,127,80,-22,32,13,59,2,31,36,32, 
  /* [71][0][][] */ 3,-25,18,-121,74,31,-14,72,-34,-59,5,31,28,-127,69,-7, 
  /* [72][0][][] */ 21,66,-72,78,13,5,-19,-113,16,66,-127,-28,26,103,13,79, 
  /* [73][0][][] */ -55,-127,0,-27,-82,-14,27,9,9,13,10,-34,16,9,59,1, 
  /* [74][0][][] */ -7,26,94,102,-44,-29,-127,65,-22,-26,-9,-50,-22,-46,-44,-14, 
  /* [75][0][][] */ -38,60,-1,-26,5,83,113,127,19,75,35,8,-76,39,30,-3, 
  /* [76][0][][] */ -33,-41,-20,-34,-15,-127,-91,-45,-7,-48,5,-19,83,8,111,21, 
  /* [77][0][][] */ -32,21,-25,-39,-37,-8,-31,-68,127,-26,-52,-7,2,73,60,-71, 
  /* [78][0][][] */ -33,-91,19,64,82,15,-46,54,-14,-81,-127,19,40,6,26,65, 
  /* [79][0][][] */ 12,-20,15,-69,127,-2,37,9,48,-2,21,6,-31,-6,22,-16, 
  /* [80][0][][] */ -19,-49,127,-68,35,27,28,63,-106,-68,-23,-41,0,116,-100,56, 
  /* [81][0][][] */ 74,-10,69,90,-1,93,-23,-4,-15,-34,-34,-127,-56,-21,-115,-31, 
  /* [82][0][][] */ -37,7,-18,-127,-38,-42,3,29,-43,-77,0,-101,-38,-28,-69,69, 
  /* [83][0][][] */ -43,-12,-56,-95,-86,-12,33,81,-1,-38,80,-46,-38,-121,46,127, 
  /* [84][0][][] */ 64,-5,-50,56,-75,34,-68,58,1,26,127,-22,-94,47,59,-79, 
  /* [85][0][][] */ 26,-22,12,-63,63,-17,-84,87,-114,-127,-106,-48,20,91,93,-110, 
  /* [86][0][][] */ -49,-17,51,-27,-20,100,-15,81,-71,-80,5,-54,-41,-127,-27,37, 
  /* [87][0][][] */ 127,-6,-23,-36,-19,-63,42,-14,28,23,-101,9,20,37,27,67, 
  /* [88][0][][] */ 114,118,-81,60,-27,-47,-27,1,35,-26,-3,42,32,23,122,-127, 
  /* [89][0][][] */ 67,75,-127,-2,-29,-2,-36,-85,57,-4,-16,-90,-21,21,-25,-99, 
  /* [90][0][][] */ 13,-58,-21,-84,-127,8,94,-109,19,-117,55,-100,124,5,4,0, 
  /* [91][0][][] */ 9,36,12,-127,-7,-14,14,-53,-64,59,70,59,38,-63,22,75, 
  /* [92][0][][] */ -5,-9,8,11,25,10,-84,-127,63,-63,28,-13,-24,-4,7,-15, 
  /* [93][0][][] */ 54,48,0,-121,10,19,0,33,-22,-108,17,19,-50,127,-52,31, 
  /* [94][0][][] */ -92,46,-127,-5,18,-80,-44,12,-42,-64,7,-1,28,-15,27,-16, 
  /* [95][0][][] */ -2,110,-53,-95,-73,-12,-84,-30,29,-84,-107,-127,28,2,-26,-57, 
};
const TfArray<4, int> tensor_dimension13 = { 4, { 96,1,1,16 } };
const TfArray<96, float> quant13_scale = { 96, { 0.00078257260611280799, 0.00062187825096771121, 0.00043002961319871247, 0.00053427508100867271, 0.00061321328394114971, 0.00078008859418332577, 0.0012461276492103934, 0.00073538697324693203, 0.00032662739977240562, 0.0013614955823868513, 0.00074112735455855727, 0.00037291157059371471, 0.00055514223640784621, 0.00036361761158332229, 0.000252077094046399, 0.00085106963524594903, 0.00062790961237624288, 0.00091243564384058118, 0.00043220879160799086, 0.00067220674827694893, 0.00080454890849068761, 0.0014441710663959384, 0.00065341556910425425, 0.0013973396271467209, 0.0014982147840783, 0.00070767267607152462, 0.00053244025912135839, 0.00056469294941052794, 0.00091768067795783281, 0.00018686470866668969, 0.0001513308088760823, 0.00055527768563479185, 0.00048673333367332816, 0.0010901490459218621, 0.00032205841853283346, 0.00069029821315780282, 0.001150553347542882, 0.0011236914433538914, 0.0003692277823574841, 0.002067056018859148, 0.00041477297781966627, 0.00075513363117352128, 0.00028553023003041744, 0.0012283588293939829, 0.00036955531686544418, 0.00073702685767784715, 0.00076879904372617602, 0.00053835107246413827, 0.00016314882668666542, 0.00057457899674773216, 0.00047801117761991918, 0.00089810992358252406, 0.000891373201739043, 0.00054556096438318491, 0.0010869584511965513, 0.00039866301813162863, 0.0006045266636647284, 0.00031230074819177389, 0.00069176813121885061, 0.0003183269000146538, 0.00093467289116233587, 0.00025572316371835768, 0.00041604629950597882, 0.00058950507082045078, 0.0011217277497053146, 0.00063476699870079756, 0.0012081165332347155, 0.0012241731164976954, 0.0007137295906431973, 0.00072072050534188747, 0.00082831823965534568, 0.00036338379140943289, 0.00017178924463223666, 0.00067682965891435742, 0.0011633940739557147, 0.00076266453834250569, 0.00065708794863894582, 0.00076500984141603112, 0.0011739800684154034, 0.00093295326223596931, 0.00031970813870429993, 0.00031120682251639664, 0.00067415024386718869, 0.00029375281883403659, 0.0011063417186960578, 0.00061196094611659646, 0.00058939144946634769, 0.0001765326305758208, 0.00041486771078780293, 0.00042865655268542469, 0.00051672861445695162, 0.0010757225099951029, 0.0010015208972617984, 0.00067564868368208408, 0.00081898528151214123, 0.00035529411979950964, } };
const TfArray<96, int> quant13_zero = { 96, { 0,0,0,0,0,0,0,0,0,0,0,0,0,0,0,0,0,0,0,0,0,0,0,0,0,0,0,0,0,0,0,0,0,0,0,0,0,0,0,0,0,0,0,0,0,0,0,0,0,0,0,0,0,0,0,0,0,0,0,0,0,0,0,0,0,0,0,0,0,0,0,0,0,0,0,0,0,0,0,0,0,0,0,0,0,0,0,0,0,0,0,0,0,0,0,0 } };
const TfLiteAffineQuantization quant13 = { (TfLiteFloatArray*)&quant13_scale, (TfLiteIntArray*)&quant13_zero, 0 };
const MODEL_SECTION(EI_MODEL_SECTION) ALIGN(16) int32_t tensor_data14[16] = { 9046, 15517, -24604, 40261, 18377, -15475, -23437, -6625, -4268, -4060, 10871, 10943, -6239, 11686, 30529, -40106, };
const TfArray<1, int> tensor_dimension14 = { 1, { 16 } };
const TfArray<16, float> quant14_scale = { 16, { 0.00033012588392011821, 0.00022969393467064947, 0.0002516958920750767, 0.00016007032536435872, 0.00026736248400993645, 0.00029873944004066288, 0.00019968667766079307, 0.0003887801431119442, 0.00018656256725080311, 0.00020245079940650612, 0.00035122808185406029, 0.00052003870951011777, 0.00024679623311385512, 0.00035592773929238319, 0.00032833247678354383, 0.00024348802980966866, } };
const TfArray<16, int> quant14_zero = { 16, { 0,0,0,0,0,0,0,0,0,0,0,0,0,0,0,0 } };
const TfLiteAffineQuantization quant14 = { (TfLiteFloatArray*)&quant14_scale, (TfLiteIntArray*)&quant14_zero, 0 };
const MODEL_SECTION(EI_MODEL_SECTION) ALIGN(16) int8_t tensor_data15[16*1*1*96] = { 
  /* [0][0][][] */ -4,29,-32,7,55,85,-48,-43,32,11,8,21,6,0,36,52,2,-11,-12,7,90,-25,8,-32,-14,-50,-26,-123,-15,9,26,39,69,2,-10,-7,3,-37,-14,1,-12,-11,-5,-12,-11,9,-21,36,-40,11,20,-18,-53,-27,5,-7,15,-8,15,-47,-54,-6,-3,-31,8,29,29,0,-14,17,-47,-44,-83,-6,-20,26,-18,-85,0,9,10,-10,-41,-28,8,-8,-29,12,-10,17,0,-47,-3,24,-48,127, 
  /* [1][0][][] */ 30,-50,4,74,-40,-22,-43,-71,12,-61,12,54,24,-77,-54,-11,-51,-7,38,-5,-16,-127,-21,-29,82,-72,-65,-31,-17,86,12,54,-13,23,-31,57,-7,-18,11,-65,26,-30,82,-2,-63,-19,68,-49,41,54,0,-71,85,-96,12,9,13,19,-30,-116,39,-86,45,-61,-23,-127,20,21,25,29,-74,13,-97,25,5,54,10,44,55,-46,54,-33,-40,48,-37,58,-40,50,-66,-8,0,29,-25,-51,48,-26, 
  /* [2][0][][] */ 45,34,29,-22,17,13,15,56,67,-33,23,72,2,20,39,10,14,-5,-9,-30,-3,-31,21,-29,21,24,-22,23,13,33,89,-26,63,-36,5,44,23,127,-45,-15,8,7,19,38,0,-56,-27,12,36,2,-40,-30,8,10,33,-40,6,4,-22,68,8,40,60,101,4,-88,13,-77,11,-14,28,34,-1,48,6,-5,40,90,-8,-13,39,47,24,-10,25,1,46,19,-3,10,3,-21,-11,-11,-6,83, 
  /* [3][0][][] */ -13,-54,-36,51,8,-38,-9,-48,-24,15,26,8,-27,-34,28,3,24,-50,10,0,-38,-45,-58,-3,-12,-39,-17,9,15,-76,94,3,-47,-2,-60,69,-46,-15,25,16,2,-85,5,-16,-9,13,-36,37,-127,82,2,-1,-113,-97,-53,-17,54,7,-36,67,24,17,-14,-4,-22,-121,-78,55,41,6,-20,31,-65,-3,-42,-72,-66,-86,40,-61,-23,14,17,47,33,81,-5,46,90,-49,-14,7,-35,9,-43,-42, 
  /* [4][0][][] */ -29,-19,24,-64,3,-30,-38,5,-41,-38,-21,-9,17,63,-8,-30,58,-39,-7,-8,-9,38,60,45,-14,1,30,26,26,-6,-12,10,-52,27,29,2,35,-57,-7,-15,27,16,-75,-23,38,-30,-4,17,13,110,14,17,-24,8,32,-13,16,-44,38,54,-11,33,-14,-18,72,-108,13,-50,-51,-23,-9,-20,12,6,-36,3,-8,101,66,-4,27,-1,127,-29,50,-15,-12,16,69,35,20,-4,-19,16,-20,-15, 
  /* [5][0][][] */ 3,-17,21,-2,-17,-44,5,111,43,-25,-22,-49,-36,34,22,24,-42,-8,-19,-20,-43,7,18,-19,20,40,15,127,69,-1,40,81,-15,24,-20,1,-51,-41,-7,-16,-58,-2,5,-25,69,-10,3,21,30,20,7,42,-47,12,32,-6,-1,11,11,52,-37,44,-35,-26,29,8,-23,3,4,-6,56,0,65,7,32,-28,13,58,21,115,24,-32,7,17,27,-14,50,-10,-6,-3,46,-93,-12,-44,36,-94, 
  /* [6][0][][] */ -13,-28,35,-65,-31,-65,-32,53,-23,9,-36,-43,22,-69,7,-57,-46,-95,1,9,-20,-16,-9,50,104,0,-27,19,5,-20,25,-7,-14,0,-33,3,13,31,61,58,-42,-35,-82,-41,-26,-11,23,-127,59,58,22,13,-9,35,13,-46,59,-1,-11,16,33,32,-35,39,74,92,51,-17,-1,2,46,-59,40,7,45,-4,-15,75,9,9,-60,-20,49,-52,-15,45,33,-15,50,-10,-34,-9,-13,-13,21,36, 
  /* [7][0][][] */ 18,-2,52,-27,8,21,7,-19,19,-19,-18,-20,-23,-80,53,12,10,-13,-10,3,1,-7,-28,-4,-15,-8,1,-34,-16,26,-1,-6,14,0,-40,-34,20,-9,-9,28,-7,-27,-43,22,1,32,-21,86,-13,-2,-26,-30,-26,3,12,-59,24,1,10,-15,-16,0,-5,-8,-39,52,-1,-36,12,9,28,18,-26,-14,3,24,55,8,-15,-19,1,-46,28,-20,-37,127,16,-3,-60,-4,-20,28,-19,-19,20,7, 
  /* [8][0][][] */ -40,44,-2,7,17,-26,15,66,9,52,-20,-18,45,44,72,-17,-5,26,-103,35,21,75,-42,9,-45,14,31,68,49,-94,-4,44,69,29,24,-19,-19,38,-27,67,-16,25,23,-93,-14,6,31,30,-23,-9,-19,62,-127,100,27,-10,26,2,-31,29,-15,13,-18,36,-24,30,48,-30,35,4,82,74,5,39,49,-16,19,-33,-31,-46,-7,-39,17,8,-55,21,73,-31,1,45,5,40,60,-26,-9,12, 
  /* [9][0][][] */ 39,-26,-25,-30,22,71,-3,35,70,-24,34,39,-8,-11,10,60,40,36,11,-19,2,34,-13,-44,44,18,42,-36,-32,-17,-18,30,18,31,31,18,5,55,-41,-9,25,4,-28,-51,38,2,40,-127,-31,-24,-28,8,-21,12,3,-33,-22,21,-23,8,23,-4,19,3,4,112,28,12,39,-1,1,-13,-27,25,-5,-14,56,-2,-11,-16,-8,-5,21,-33,-19,56,14,2,-77,16,-54,43,17,46,2,-2, 
  /* [10][0][][] */ 24,30,-11,34,49,-127,5,6,9,36,32,-11,-15,25,13,-65,2,13,-43,23,-64,12,-12,-4,-51,7,-31,83,21,-3,-5,56,22,-14,25,-13,59,-5,-3,4,-15,65,71,-25,-50,-45,-33,10,3,-3,-2,1,1,17,18,-5,20,37,-25,5,10,31,-19,27,30,28,27,22,36,-12,64,40,-19,-22,-17,-36,18,44,-37,-9,51,-28,-57,-44,60,-43,122,2,-14,27,44,4,82,24,30,-121, 
  /* [11][0][][] */ 59,20,-11,12,-4,5,63,26,-18,-37,-28,-6,-10,12,48,22,-1,6,-108,-20,-8,34,-8,6,-21,-6,-6,6,13,5,-17,-25,13,-5,2,37,-6,21,3,51,-13,5,71,-102,43,-18,3,9,-127,-11,-16,-47,1,19,5,21,3,9,6,18,-6,0,-28,27,-40,56,0,25,21,-20,17,28,-41,-11,7,17,14,-10,-65,14,20,-5,69,27,13,-27,6,9,19,22,-3,21,14,28,-34,32, 
  /* [12][0][][] */ -42,-41,16,-16,-17,54,-8,25,127,27,-33,-8,12,5,-36,-44,10,41,55,108,56,35,-3,-53,16,-10,24,-65,-113,-25,25,-89,-57,-42,-27,4,-11,-37,55,12,-66,-31,-55,-23,0,50,0,-7,-5,0,-43,31,-45,-24,12,8,58,-20,62,26,-41,-33,21,-17,-5,45,-51,12,-17,9,-87,-48,9,3,-98,33,11,9,35,-36,-44,32,36,77,-18,-60,-70,-47,13,10,19,42,-37,-8,-35,62, 
  /* [13][0][][] */ 39,-22,-12,13,42,3,29,2,-22,0,0,-24,7,4,18,-16,10,-72,-25,17,-25,-18,-2,6,13,9,9,13,1,-46,10,24,7,4,19,44,8,-17,23,27,-11,21,0,29,16,36,-7,-127,27,6,13,0,-16,-2,26,10,-2,-2,14,14,16,27,5,8,-1,-11,-29,-42,19,23,12,-36,-33,45,-28,14,-15,3,10,17,9,-13,-27,5,10,30,9,31,10,10,5,-19,-2,7,-25,-6, 
  /* [14][0][][] */ -127,-63,12,64,13,-46,-28,21,-46,22,-28,37,57,-14,-117,-6,74,-47,4,30,-33,-24,7,-4,-123,-16,52,17,-2,-43,1,19,-13,-13,31,-37,34,58,-26,40,7,41,-23,-54,23,94,43,34,-89,19,-13,41,-46,-40,24,9,52,19,30,87,48,66,-2,68,-31,-37,-29,55,-18,92,-28,-55,-65,-30,-16,64,5,27,92,-32,48,36,45,43,40,18,39,50,39,31,50,-24,9,24,37,-42, 
  /* [15][0][][] */ 109,-38,65,-32,23,66,62,6,-16,19,-9,-10,-62,13,14,55,-4,60,14,-55,-14,50,-68,53,48,23,39,-27,46,16,-65,-106,37,-67,88,-22,12,-13,-27,-52,-27,5,-27,22,21,79,-10,11,75,-70,-74,11,12,-78,77,-88,27,-40,2,31,-127,18,17,32,72,7,-24,68,-9,77,-21,36,45,45,42,10,40,-21,24,-5,-37,6,14,56,-28,-20,38,-47,34,-24,45,26,-33,87,-4,15, 
};
const TfArray<4, int> tensor_dimension15 = { 4, { 16,1,1,96 } };
const TfArray<16, float> quant15_scale = { 16, { 0.014030350372195244, 0.009761991910636425, 0.010697075165808201, 0.0068029887042939663, 0.011362905614078045, 0.012696425430476665, 0.0084866834804415703, 0.016523156315088272, 0.0079289088025689125, 0.0086041586473584175, 0.014927192591130733, 0.022101644426584244, 0.010488839820027351, 0.015126928687095642, 0.013954130001366138, 0.010348240844905376, } };
const TfArray<16, int> quant15_zero = { 16, { 0,0,0,0,0,0,0,0,0,0,0,0,0,0,0,0 } };
const TfLiteAffineQuantization quant15 = { (TfLiteFloatArray*)&quant15_scale, (TfLiteIntArray*)&quant15_zero, 0 };
const MODEL_SECTION(EI_MODEL_SECTION) ALIGN(16) int32_t tensor_data16[96] = { 10804, -11410, 1870, 61738, -864, -4179, -10955, 1042, -2887, 1723, 2464, -1383, 1519, -14875, 5059, -4463, -1438, 16069, 21362, 2877, 1511, -2295, 960, -1819, 21639, -2324, 1159, -2124, -5578, -6149, 12778, -9772, 870, -1167, -1434, 24113, 1620, -4677, 16571, 977, -554, 1980, -9510, -8317, -8706, 58805, 929, 20299, 45489, -12600, -32, 11935, 11122, -400, -6943, 2304, -14478, 2232, 2700, -5284, -1521, -1469, -5713, -3637, -579, 15020, 26438, 35350, -14653, 147, -11711, -439, 39901, 6998, 1266, 1473, 17910, 31901, -855, -11604, -2883, -6429, 491, -3165, 1522, 3418, 2744, -1114, 2642, -1510, 401, -2294, -2495, 1483, 821, 45471, };
const TfArray<1, int> tensor_dimension16 = { 1, { 96 } };
const TfArray<96, float> quant16_scale = { 96, { 0.00015520417946390808, 8.1916470662690699e-05, 0.00021814745559822768, 3.4565811802167445e-05, 0.00013019550533499569, 0.00018911300867330283, 0.00036113255191594362, 7.4462979682721198e-05, 0.00014513036876451224, 0.00029156604432500899, 0.00013953685993328691, 0.000331679213559255, 9.7976517281495035e-05, 0.00029949797317385674, 0.00017478564404882491, 0.00017709343228489161, 8.5264997323974967e-05, 0.0003084997006226331, 8.3170496509410441e-05, 0.00018677154730539769, 4.8267520469380543e-05, 0.00013283264706842601, 0.00014865460980217904, 0.0003025572223123163, 0.00014539927360601723, 0.00029069141601212323, 0.00012703399988822639, 0.0001565711572766304, 0.00011243549670325592, 0.00012609024997800589, 7.4942763603758067e-05, 0.00016665837028995156, 9.8956545116379857e-05, 9.9375341960694641e-05, 0.00016764331667218357, 9.9037504696752876e-05, 0.0002567858318798244, 0.00010690696217352524, 4.277095285942778e-05, 0.00011745895608328283, 0.00019501594942994416, 0.00022038721363060176, 0.00037025674828328192, 0.00014335208106786013, 0.00016415696882177144, 6.4199339249171317e-05, 0.00019339483696967363, 0.0001465195236960426, 5.952469291514717e-05, 0.00017965491861104965, 0.00019084796076640487, 0.00010266342724207789, 0.00019506113312672824, 0.00024407760065514594, 0.00019989005522802472, 0.00047314254334196448, 0.00024913687957450747, 0.00018844775331672281, 9.0366425865795463e-05, 7.7101671195123345e-05, 0.00024597215815447271, 0.0001211760172736831, 0.0003599159826990217, 0.00010459898476256058, 0.00019554083701223135, 0.00018752309551928192, 8.0575562606099993e-05, 5.354783934308216e-05, 0.00026358742616139352, 0.00020863547979388386, 0.0001506843400420621, 8.0446399806533009e-05, 0.00014578693662770092, 0.00015471348888240755, 0.00013448261597659439, 0.00020626078185159713, 0.00055599928600713611, 4.3949152313871309e-05, 0.00021425727754831314, 0.00016329543723259121, 0.00011683075717883185, 0.00034158618655055761, 0.00010865839431062341, 0.00014667784853372723, 9.0472407464403659e-05, 9.7589952929411083e-05, 0.00011400960647733882, 0.00015887840709183365, 0.00018325453856959939, 0.00010355082486057654, 0.00013909816334489733, 9.6232390205841511e-05, 9.4695053121540695e-05, 0.00040983123471960425, 0.0015521784080192447, 7.8297547588590533e-05, } };
const TfArray<96, int> quant16_zero = { 96, { 0,0,0,0,0,0,0,0,0,0,0,0,0,0,0,0,0,0,0,0,0,0,0,0,0,0,0,0,0,0,0,0,0,0,0,0,0,0,0,0,0,0,0,0,0,0,0,0,0,0,0,0,0,0,0,0,0,0,0,0,0,0,0,0,0,0,0,0,0,0,0,0,0,0,0,0,0,0,0,0,0,0,0,0,0,0,0,0,0,0,0,0,0,0,0,0 } };
const TfLiteAffineQuantization quant16 = { (TfLiteFloatArray*)&quant16_scale, (TfLiteIntArray*)&quant16_zero, 0 };
const MODEL_SECTION(EI_MODEL_SECTION) ALIGN(16) int8_t tensor_data17[1*3*3*96] = { 
  /* [0][0][][] */ -18,1,-18,110,-19,30,-62,-55,16,-10,109,-6,6,-6,-3,48,3,14,-29,5,72,-1,31,-36,3,21,38,52,17,11,23,50,-7,31,5,-16,5,49,-69,-27,20,9,30,16,-84,-56,27,-4,-9,-24,-7,-7,52,5,-12,4,-3,-32,25,-36,33,-4,127,30,-11,-13,12,-52,68,37,0,-5,76,-28,66,3,17,-127,29,67,2,18,127,-13,39,33,-28,-15,37,-7,-17,78,5,16,-1,9, -48,9,-6,13,46,-2,-7,-127,38,14,-127,-6,-15,-12,7,92,18,-31,-11,-14,74,-102,127,24,-59,-24,-108,-15,25,36,-49,20,116,7,-13,-2,-26,127,-79,-127,7,-20,-28,13,43,-127,127,-42,-74,53,46,5,40,-65,32,58,39,40,-108,82,127,32,-2,-17,43,-38,-94,-2,38,-29,-7,45,-45,-39,100,-6,-28,-54,-29,65,-64,64,-20,7,-14,47,54,-36,-29,56,-16,69,-127,-34,25,-127, 0,-9,-20,-72,2,26,39,19,-7,-3,6,62,2,-16,-6,11,-12,15,-14,20,13,21,26,-36,3,-26,4,16,-8,6,48,-75,37,15,13,-24,10,8,-41,-24,9,1,-17,10,19,-34,23,3,10,-8,8,-2,1,5,-8,9,-11,44,1,-7,17,-13,-3,-15,-23,-18,31,-48,-102,-5,55,-21,-127,-20,-16,14,14,-11,9,8,-15,31,-39,-5,-44,26,24,38,-24,-19,22,-11,22,4,-1,-50, 
  /* [0][1][][] */ -42,56,-16,38,-86,-11,-10,-41,29,98,-46,-22,-28,-23,-4,57,127,-24,-96,-11,64,-127,-27,14,-34,-46,-127,-3,34,38,-50,31,-127,-72,-62,2,71,1,-51,47,-18,85,2,1,37,-51,-10,-30,127,43,-1,20,46,11,-41,-15,31,11,-127,127,-31,-85,14,127,-54,-38,-77,127,-35,127,-30,52,-38,-51,31,5,-35,-70,127,51,127,42,4,-2,127,29,-93,49,-38,-36,-107,40,103,102,32,-60, 127,127,127,127,-46,-127,127,25,127,-127,18,-127,-105,127,127,127,-13,-127,-69,-127,127,24,-65,127,127,127,-56,-127,127,127,-127,127,-12,-127,-120,127,-127,-40,104,113,-127,-127,127,127,127,-120,-103,127,-13,127,-127,-127,-127,127,127,-127,127,-127,-49,41,-108,-29,-71,-64,127,127,-61,121,127,-107,-127,127,-35,127,-127,-127,-127,126,-75,127,-43,127,80,127,-41,-127,-24,-101,-127,-125,-25,-127,-18,-127,-127,113, -24,72,-36,2,127,75,-20,47,7,23,-13,-2,-25,-32,-10,-10,-98,-21,-127,42,36,78,-11,-122,-35,-36,116,76,13,30,74,11,119,-50,127,-5,58,9,-107,15,37,23,-23,-2,-20,-57,-11,-40,83,15,-10,42,-10,-4,-79,-13,20,21,122,-96,9,127,-6,-32,-105,-28,-70,102,17,-14,117,27,-17,-50,7,43,-25,-7,-40,-7,-50,9,49,21,-94,39,127,-44,32,-22,127,-10,-110,34,37,14, 
  /* [0][2][][] */ -6,-46,-20,-60,-6,15,40,31,-1,9,-16,52,25,-37,-6,6,40,5,11,26,-4,29,-15,-26,-1,-19,5,5,-12,-11,47,-71,-36,67,-31,-27,31,-31,-75,21,10,9,-32,17,15,-74,-10,0,-8,8,19,-6,5,-2,-27,8,-3,46,-54,29,1,-7,-1,20,-6,-10,14,-53,-52,13,-31,-7,-123,-30,-6,15,13,-12,58,20,24,22,-44,14,14,26,-20,14,6,28,20,0,26,41,-3,-32, -29,-15,-26,25,-44,80,-25,65,6,-6,58,-11,127,-7,-16,-17,2,-36,-64,25,-15,76,-42,-119,-47,-41,95,78,15,40,55,1,-119,62,-11,-25,-27,-22,-127,-2,45,-13,-14,34,-25,-45,-16,-45,-59,31,66,28,-14,-83,28,53,21,27,66,-61,22,-52,-14,4,19,-26,-127,-53,-8,-26,-63,25,36,-39,-33,-9,-44,24,-52,-2,49,32,16,8,4,61,-99,127,17,127,-34,-14,123,-21,52,75, -10,-40,-25,27,14,69,-44,14,6,-8,-1,16,11,-52,-5,-13,-41,-5,11,20,-13,5,-19,0,-5,20,-6,58,-5,-6,35,31,17,40,26,-24,-4,-22,-26,13,11,-10,21,7,-70,-31,-11,6,1,-15,2,-1,-12,6,-19,-5,0,-49,8,-36,-15,53,4,-24,-9,-3,34,-55,44,8,58,-19,26,-49,-22,19,11,10,-2,18,-32,30,85,-16,-19,55,33,-6,114,11,0,-13,13,-22,-2,-55, 
};
const TfArray<4, int> tensor_dimension17 = { 4, { 1,3,3,96 } };
const TfArray<96, float> quant17_scale = { 96, { 0.0065961773507297039, 0.0034814500249922276, 0.009271266870200634, 0.0014690470416098833, 0.0055333087220788002, 0.0080373026430606842, 0.015348132699728012, 0.0031646767165511847, 0.0061680404469370842, 0.012391556985676289, 0.0059303161688148975, 0.014096366241574287, 0.0041640019044280052, 0.012728664092719555, 0.0074283895082771778, 0.0075264708139002323, 0.0036237621679902077, 0.0131112365052104, 0.0035347458906471729, 0.0079377908259630203, 0.0020513695199042559, 0.005645387340337038, 0.0063178208656609058, 0.012858682312071323, 0.006179469171911478, 0.012354385107755661, 0.0053989449515938759, 0.0066542741842567921, 0.0047785085625946522, 0.0053588352166116238, 0.0031850673258304596, 0.0070829805918037891, 0.004205652978271246, 0.0042234519496560097, 0.0071248407475650311, 0.0042090937495231628, 0.010913397185504436, 0.0045435456559062004, 0.0018177655292674899, 0.0049920054152607918, 0.0082881776615977287, 0.0093664564192295074, 0.015735911205410957, 0.0060924636200070381, 0.0069766710512340069, 0.0027284717652946711, 0.0082192802801728249, 0.0062270797789096832, 0.002529799472540617, 0.0076353340409696102, 0.0081110382452607155, 0.0043631955049932003, 0.0082900980487465858, 0.010373298078775406, 0.0084953270852565765, 0.020108558237552643, 0.010588317178189754, 0.0080090295523405075, 0.0038405731320381165, 0.0032768209930509329, 0.010453816503286362, 0.005149980541318655, 0.015296428464353085, 0.004445456899702549, 0.0083104856312274933, 0.0079697314649820328, 0.0034244614653289318, 0.0022757831029593945, 0.011202465742826462, 0.0088670076802372932, 0.0064040846191346645, 0.0034189717844128609, 0.0061959447339177132, 0.0065753231756389141, 0.0057155108079314232, 0.0087660830467939377, 0.023629968985915184, 0.0018678389023989439, 0.0091059338301420212, 0.006940055638551712, 0.0049653071910142899, 0.014517412520945072, 0.0046179816126823425, 0.0062338085845112801, 0.0038450772408396006, 0.0041475729085505009, 0.0048454082570970058, 0.0067523322068154812, 0.0077883177436888218, 0.0044009098783135414, 0.005911671556532383, 0.0040898765437304974, 0.0040245396085083485, 0.017417827621102333, 0.065967582166194916, 0.0033276455942541361, } };
const TfArray<96, int> quant17_zero = { 96, { 0,0,0,0,0,0,0,0,0,0,0,0,0,0,0,0,0,0,0,0,0,0,0,0,0,0,0,0,0,0,0,0,0,0,0,0,0,0,0,0,0,0,0,0,0,0,0,0,0,0,0,0,0,0,0,0,0,0,0,0,0,0,0,0,0,0,0,0,0,0,0,0,0,0,0,0,0,0,0,0,0,0,0,0,0,0,0,0,0,0,0,0,0,0,0,0 } };
const TfLiteAffineQuantization quant17 = { (TfLiteFloatArray*)&quant17_scale, (TfLiteIntArray*)&quant17_zero, 3 };
const MODEL_SECTION(EI_MODEL_SECTION) ALIGN(16) int32_t tensor_data18[96] = { 12961, 2058, 7510, -939, 6248, 5138, 16821, 7614, -1965, 12020, 5876, 3207, 13881, 29736, -447, -4073, 9217, 10533, 2382, -192, -648, 18579, 6373, 2890, 5728, 6643, 8301, 7620, 200, -498, 11150, 9969, 14565, 1964, 5220, -596, 39079, 11464, 654, 3958, 1023, 9665, 11527, 6377, 5575, 16442, 16539, 8007, 5577, 5080, 393, -1027, 27979, 10273, 10185, 15427, -148, 6680, 2989, 5590, 21989, 7362, 4337, 12524, 6632, 4271, 6509, -604, 21905, 7884, 13461, -928, -1659, 4643, 1633, 5370, 23521, 17130, 15183, -2274, 5717, -5724, -1646, 979, 8847, 4526, 7060, 5222, 8989, 5457, 9135, 4888, 17339, 19386, -8453, 19000, };
const TfArray<1, int> tensor_dimension18 = { 1, { 96 } };
const TfArray<96, float> quant18_scale = { 96, { 0.00020412307640071958, 0.00020532998314592987, 0.00017309946997556835, 0.00065644865389913321, 0.00026762954075820744, 0.00017805788957048208, 0.00018623567302711308, 0.00046220986405387521, 0.00025084626395255327, 0.00014410779112949967, 0.00022615284251514822, 0.00026670860825106502, 0.00020498571393545717, 0.00016449349641334265, 0.00023079069796949625, 0.00020465435227379203, 0.00023703469196334481, 0.00021667762484867126, 0.0002201608003815636, 0.00056923914235085249, 0.00027300452347844839, 0.00013692298671230674, 0.00022934479056857526, 0.00025374320102855563, 0.00029795090085826814, 0.00030034617520868778, 0.00018294434994459152, 0.00011967302998527884, 0.00040199956856667995, 0.00018314538465347141, 0.00014045901480130851, 0.00018446260946802795, 0.00013691892672795802, 0.00058203365188091993, 0.00030686435638926923, 0.00037051617982797325, 5.9916885220445693e-05, 0.00022033417189959437, 0.00058892130618914962, 0.00024154387938324362, 0.00045652425615116954, 0.00020084224524907768, 0.00017942851991392672, 0.0001341645693173632, 0.00019935786258429289, 0.00019150091975461692, 0.0001748662325553596, 0.00017704020137898624, 0.00027261502691544592, 0.00017682535690255463, 0.00053033692529425025, 0.00062464689835906029, 9.8145064839627594e-05, 0.00016121786029543728, 0.000237858752370812, 0.00012215794413350523, 0.00038551635225303471, 0.0002706068626139313, 0.00029238042770884931, 0.0003063034382648766, 7.6443597208708525e-05, 0.00017671349633019418, 0.00025706528685986996, 0.00022437791631091386, 0.00014859496150165796, 0.00027471350040286779, 0.00029127250309102237, 0.00049024372128769755, 0.00011990006169071421, 0.00014343787916004658, 0.00013865555229131132, 0.00048386561684310436, 0.00023164208687376231, 0.00026939844246953726, 0.00031949885305948555, 0.00025065478985197842, 9.8751770565286279e-05, 0.00025691473274491727, 0.00010917731560766697, 0.00052188563859090209, 0.00019093521405011415, 0.00035642189322970808, 0.00024525253684259951, 0.00033174818963743746, 0.00018575647845864296, 0.00033531521330587566, 0.00020614413369912654, 0.00024572957772761583, 0.00018604272918310016, 0.00030024666921235621, 0.00014983433356974274, 0.00034548487747088075, 0.00011933552013942972, 0.00014185464533511549, 0.00034172006417065859, 0.00016989251889754087, } };
const TfArray<96, int> quant18_zero = { 96, { 0,0,0,0,0,0,0,0,0,0,0,0,0,0,0,0,0,0,0,0,0,0,0,0,0,0,0,0,0,0,0,0,0,0,0,0,0,0,0,0,0,0,0,0,0,0,0,0,0,0,0,0,0,0,0,0,0,0,0,0,0,0,0,0,0,0,0,0,0,0,0,0,0,0,0,0,0,0,0,0,0,0,0,0,0,0,0,0,0,0,0,0,0,0,0,0 } };
const TfLiteAffineQuantization quant18 = { (TfLiteFloatArray*)&quant18_scale, (TfLiteIntArray*)&quant18_zero, 0 };
const MODEL_SECTION(EI_MODEL_SECTION) ALIGN(16) int8_t tensor_data19[96*1*1*16] = { 
  /* [0][0][][] */ -5,-8,127,91,93,27,-17,-68,72,-58,-14,-35,45,49,16,-110, 
  /* [1][0][][] */ -14,81,26,32,127,54,68,19,78,16,10,75,-52,32,115,-123, 
  /* [2][0][][] */ 54,-51,-48,42,-92,80,-45,68,1,-70,57,53,-28,-66,88,-127, 
  /* [3][0][][] */ 127,111,30,26,-97,-5,-122,-28,-4,-39,115,-94,-113,117,-92,-84, 
  /* [4][0][][] */ -9,19,79,89,-49,49,-65,3,-47,-70,-1,65,-18,-127,60,21, 
  /* [5][0][][] */ 127,-40,3,31,-38,-77,-22,25,9,13,-58,0,-9,16,-41,1, 
  /* [6][0][][] */ -83,-60,-24,50,7,-63,-38,-19,-95,-23,-127,-61,61,-14,58,91, 
  /* [7][0][][] */ -21,44,-52,29,12,-127,-7,66,15,-63,30,2,32,39,-36,29, 
  /* [8][0][][] */ 21,-60,-14,-21,4,4,-59,-105,-17,5,-85,-20,-127,-11,32,22, 
  /* [9][0][][] */ 46,-40,80,89,-6,80,-4,-63,127,-89,24,18,-35,21,-37,-6, 
  /* [10][0][][] */ -68,-81,56,-37,79,0,23,78,127,-33,-42,-18,-1,-18,-121,17, 
  /* [11][0][][] */ 85,-40,-127,69,31,0,0,69,-52,10,-24,-1,-38,13,-57,-24, 
  /* [12][0][][] */ 76,-127,-53,17,-75,-27,-86,-19,99,47,-91,-51,-28,-41,42,83, 
  /* [13][0][][] */ 73,-54,101,-89,127,25,-50,-105,94,-124,32,0,53,37,-1,45, 
  /* [14][0][][] */ -52,38,-58,-45,73,-127,39,-67,56,68,1,-58,3,66,15,6, 
  /* [15][0][][] */ 29,34,112,-21,109,-25,-75,18,0,-116,-78,12,-127,-47,-2,98, 
  /* [16][0][][] */ -60,-2,23,26,-48,63,52,86,5,-24,127,-36,30,33,34,-53, 
  /* [17][0][][] */ -40,-16,-23,-3,-2,46,71,42,-10,127,-24,24,-17,82,78,-11, 
  /* [18][0][][] */ -22,127,17,-42,42,-28,62,-39,-4,66,-18,53,-38,-36,40,-102, 
  /* [19][0][][] */ -10,-59,31,34,-32,78,-33,4,19,-2,-42,-24,-127,30,-14,45, 
  /* [20][0][][] */ 72,-36,-20,-27,-38,17,-11,-67,-4,14,-127,-1,60,20,37,24, 
  /* [21][0][][] */ 43,25,127,43,12,105,-12,-48,-3,15,-21,15,-20,104,-13,-73, 
  /* [22][0][][] */ -34,33,49,-39,24,-6,29,127,38,-11,41,11,-21,27,9,11, 
  /* [23][0][][] */ -31,51,-30,-6,5,-127,12,33,-4,-12,3,-20,-44,18,-12,-5, 
  /* [24][0][][] */ 1,-26,-10,-23,62,19,-25,-47,55,10,68,89,-18,38,127,24, 
  /* [25][0][][] */ -55,-127,-50,42,-39,-11,-31,-38,-48,20,-56,5,13,40,-3,21, 
  /* [26][0][][] */ -18,34,19,-25,18,-3,-47,28,-80,-53,27,21,-19,-127,23,-24, 
  /* [27][0][][] */ -94,51,-28,0,64,3,34,20,1,-43,127,-1,-37,0,-16,-8, 
  /* [28][0][][] */ -29,-1,29,7,11,12,-2,82,30,-5,-7,5,-127,3,-13,19, 
  /* [29][0][][] */ -51,101,69,-64,69,23,16,-30,-127,16,-3,30,-8,68,-89,47, 
  /* [30][0][][] */ -74,-6,-127,-78,17,-56,33,44,-14,0,31,-40,-46,-17,-25,44, 
  /* [31][0][][] */ 127,-4,-89,20,36,-9,-60,13,-52,-18,-55,-27,-19,-37,-64,-11, 
  /* [32][0][][] */ -127,36,24,90,-1,79,0,-6,-7,-6,39,28,7,22,-7,-19, 
  /* [33][0][][] */ -45,-16,127,-4,-83,66,30,-35,-17,17,-16,54,-4,22,37,24, 
  /* [34][0][][] */ -37,13,-62,-127,37,13,17,-37,8,-37,-57,-73,2,-15,-6,55, 
  /* [35][0][][] */ -31,-66,67,81,51,-25,4,-39,-96,71,-9,13,-45,127,-20,-67, 
  /* [36][0][][] */ -77,38,17,-21,21,60,115,127,29,-4,124,39,49,62,42,-38, 
  /* [37][0][][] */ -28,23,127,-42,-44,-87,-21,-76,40,14,-6,23,-36,-47,48,-5, 
  /* [38][0][][] */ -10,29,30,1,13,-102,-14,-15,-20,24,97,-27,127,36,-3,53, 
  /* [39][0][][] */ -6,-4,-44,-44,-58,-127,91,88,-1,31,-18,-26,-5,-4,49,48, 
  /* [40][0][][] */ 63,-25,11,-10,20,64,-32,26,10,-30,28,-5,127,32,1,-41, 
  /* [41][0][][] */ 13,-42,4,-127,47,-18,21,-34,-4,-35,-2,-12,-7,-11,-9,14, 
  /* [42][0][][] */ 37,4,-33,88,-71,-2,-31,35,-52,-15,28,-58,-20,127,-9,21, 
  /* [43][0][][] */ 19,43,-60,127,-17,53,54,-63,-25,70,-7,-7,32,-48,49,46, 
  /* [44][0][][] */ -46,-30,-112,30,127,105,-25,80,7,-62,32,-47,20,5,-64,-36, 
  /* [45][0][][] */ -30,68,24,-114,1,18,115,17,-9,41,-42,30,-35,-127,43,-95, 
  /* [46][0][][] */ -17,57,94,-6,41,39,-101,41,30,-38,-3,37,-21,127,89,27, 
  /* [47][0][][] */ -2,2,-7,-75,-53,8,-17,50,-28,-35,43,16,-19,-127,36,40, 
  /* [48][0][][] */ -1,20,26,-127,-16,-10,-1,13,12,-32,38,-23,-16,52,-37,58, 
  /* [49][0][][] */ 70,-67,-30,127,94,10,11,86,-111,19,26,60,8,68,98,-10, 
  /* [50][0][][] */ -13,-21,13,-30,-47,127,-28,-1,1,-22,68,29,95,7,-33,-56, 
  /* [51][0][][] */ -6,100,67,-26,47,-1,-79,3,104,-9,62,127,-37,48,58,-50, 
  /* [52][0][][] */ -31,38,127,4,75,-40,0,-28,-26,11,-23,54,-5,104,-117,-23, 
  /* [53][0][][] */ 73,-51,-63,-127,-105,-10,-10,-63,-45,-12,-58,13,44,-43,74,4, 
  /* [54][0][][] */ -11,-22,0,-20,20,21,12,27,67,4,6,17,40,127,-3,29, 
  /* [55][0][][] */ -29,2,-75,1,33,-8,-70,-127,46,-70,-23,-28,-41,-60,-43,0, 
  /* [56][0][][] */ 57,48,42,49,19,2,37,127,7,-29,35,-38,41,-7,-81,18, 
  /* [57][0][][] */ 17,17,127,-5,3,-22,37,0,23,29,-48,30,21,-59,52,-22, 
  /* [58][0][][] */ 85,127,11,29,-93,-61,-74,16,-5,13,88,-16,-68,-44,15,-31, 
  /* [59][0][][] */ 127,-54,18,32,-45,-28,-46,21,-17,-1,-83,-40,-24,19,-27,-8, 
  /* [60][0][][] */ -127,56,-27,-9,36,-27,52,8,16,73,106,-11,-26,-28,66,-11, 
  /* [61][0][][] */ -127,33,-24,15,56,77,7,3,126,-108,78,51,18,27,-90,23, 
  /* [62][0][][] */ -37,8,-122,2,60,127,-59,118,48,-15,72,-47,-64,-23,-91,7, 
  /* [63][0][][] */ -44,19,127,-45,-67,-101,57,-58,-27,28,-19,43,15,-83,101,40, 
  /* [64][0][][] */ -5,52,-61,5,27,-25,87,-127,0,124,49,-27,-38,-94,-4,120, 
  /* [65][0][][] */ 3,32,18,-30,80,-3,-15,-127,-22,-83,-39,-57,16,-13,30,-16, 
  /* [66][0][][] */ -127,-28,-4,33,-32,64,17,9,-43,-57,-68,38,85,42,35,64, 
  /* [67][0][][] */ 24,-101,37,118,15,-38,1,79,38,49,-13,-40,-1,-14,-127,-58, 
  /* [68][0][][] */ 23,-11,8,127,-23,-17,-45,-22,-95,32,-30,-9,-31,-61,-41,-76, 
  /* [69][0][][] */ 86,53,13,127,13,-20,94,-91,26,89,-22,78,-14,-14,59,3, 
  /* [70][0][][] */ -29,-2,40,-74,122,-8,74,75,-7,14,127,-17,-75,29,-34,25, 
  /* [71][0][][] */ 9,45,12,102,20,-127,-38,47,30,-90,27,-5,-9,-82,-36,1, 
  /* [72][0][][] */ -122,-54,-3,29,-19,34,-64,-3,-35,-49,-83,18,70,-6,39,127, 
  /* [73][0][][] */ -18,-105,6,127,-10,21,-47,-7,58,-5,25,37,84,112,-93,-61, 
  /* [74][0][][] */ 11,-44,38,-73,-71,-7,66,7,-23,17,-78,-17,-127,3,43,82, 
  /* [75][0][][] */ -3,18,-23,77,-21,-51,-51,-62,-127,-27,-10,-32,-19,-75,21,-27, 
  /* [76][0][][] */ -91,-11,44,-21,87,-10,-32,-98,65,-127,29,67,-92,-111,17,-17, 
  /* [77][0][][] */ 127,3,-37,89,-70,11,-21,-9,65,22,7,29,-9,-6,-75,-8, 
  /* [78][0][][] */ 16,7,25,-10,4,-13,-127,53,75,-35,-88,-52,27,105,92,-42, 
  /* [79][0][][] */ 8,2,18,27,19,67,-15,-35,4,-51,62,-26,127,9,-33,-52, 
  /* [80][0][][] */ -127,-49,-27,121,8,89,10,-18,-37,40,-76,9,100,-53,-6,-8, 
  /* [81][0][][] */ 15,-30,-30,-16,127,103,-53,32,27,-117,14,-51,-28,21,-83,69, 
  /* [82][0][][] */ 69,127,-29,2,-122,-45,-25,12,-47,-5,107,-64,-57,106,37,-8, 
  /* [83][0][][] */ 127,15,42,-8,28,5,4,64,61,-3,110,-58,-69,-12,-33,-117, 
  /* [84][0][][] */ 52,-36,-51,-20,-13,12,-25,-127,-50,-63,-26,-24,10,9,4,-25, 
  /* [85][0][][] */ 14,-9,-78,-62,-36,-43,107,81,-35,127,-53,-16,11,64,82,31, 
  /* [86][0][][] */ 57,-35,19,22,17,10,-35,-22,24,3,-127,43,37,-35,20,42, 
  /* [87][0][][] */ -10,-29,4,-61,-69,116,-101,87,16,-30,36,-10,48,-127,35,28, 
  /* [88][0][][] */ -82,-53,-89,-29,58,38,-28,-127,43,-4,45,6,-28,-29,7,-51, 
  /* [89][0][][] */ 57,-34,55,-123,22,12,-127,67,114,-102,95,-55,-65,-20,55,15, 
  /* [90][0][][] */ -26,-20,2,120,8,10,66,-69,90,127,-56,64,22,17,-18,-11, 
  /* [91][0][][] */ 30,-37,-61,13,26,-127,15,6,25,12,-73,24,43,14,-1,77, 
  /* [92][0][][] */ -29,19,110,86,33,11,-21,25,-47,-16,-117,43,84,127,-2,-2, 
  /* [93][0][][] */ 127,-14,-66,-36,-24,-51,31,25,11,39,-83,13,3,10,-2,47, 
  /* [94][0][][] */ 20,-26,55,68,70,-4,3,67,-17,3,21,26,10,127,-45,-66, 
  /* [95][0][][] */ -96,48,75,10,47,58,13,-5,17,-6,127,-32,-22,18,2,-18, 
};
const TfArray<4, int> tensor_dimension19 = { 4, { 96,1,1,16 } };
const TfArray<96, float> quant19_scale = { 96, { 0.00074506615055724978, 0.00074947148095816374, 0.00063182745361700654, 0.0023960920516401529, 0.00097687006928026676, 0.00064992607804015279, 0.00067977566504850984, 0.0016871043480932713, 0.00091560970759019256, 0.00052600540220737457, 0.00082547665806487203, 0.00097350851865485311, 0.0007482148939743638, 0.00060041493270546198, 0.00084240519208833575, 0.00074700539698824286, 0.00086519628530368209, 0.00079089129576459527, 0.00080360518768429756, 0.0020777701865881681, 0.00099648919422179461, 0.00049978028982877731, 0.00083712750347331166, 0.00092618376947939396, 0.0010875455336645246, 0.0010962884407490492, 0.00066776206949725747, 0.00043681648094207048, 0.0014673317782580853, 0.00066849583527073264, 0.00051268708193674684, 0.00067330384626984596, 0.00049976544687524438, 0.0021244711242616177, 0.0011200803564861417, 0.0013524148380383849, 0.00021870160708203912, 0.00080423802137374878, 0.0021496117115020752, 0.00088165519991889596, 0.0016663514543324709, 0.00073309085564687848, 0.0006549289682880044, 0.00048971181968227029, 0.00072767277015373111, 0.00069899426307529211, 0.00063827628036960959, 0.00064621143974363804, 0.00099506753031164408, 0.00064542720792815089, 0.0019357738783583045, 0.0022800129372626543, 0.00035823762300424278, 0.00058845855528488755, 0.00086820416618138552, 0.00044588666060008109, 0.0014071667101234198, 0.00098773755598813295, 0.0010672127828001976, 0.0011180329602211714, 0.00027902546571567655, 0.00064501893939450383, 0.0009383096476085484, 0.00081899802898988128, 0.00054238393204286695, 0.0010027270764112473, 0.0010631688637658954, 0.0017894302727654576, 0.00043764518341049552, 0.00052356015658006072, 0.00050610426114872098, 0.001766149653121829, 0.00084551284089684486, 0.00098332669585943222, 0.0011661973549053073, 0.00091491074999794364, 0.0003604521625675261, 0.00093776010908186436, 0.00039850626490078866, 0.0019049257971346378, 0.00069692940451204777, 0.0013009695103392005, 0.00089519214816391468, 0.001210908405482769, 0.00067802658304572105, 0.0012239284114912152, 0.0007524432148784399, 0.00089693331392481923, 0.00067907141055911779, 0.0010959252249449492, 0.00054690777324140072, 0.0012610484845936298, 0.0004355845449026674, 0.00051778124179691076, 0.0012473065871745348, 0.00062012177659198642, } };
const TfArray<96, int> quant19_zero = { 96, { 0,0,0,0,0,0,0,0,0,0,0,0,0,0,0,0,0,0,0,0,0,0,0,0,0,0,0,0,0,0,0,0,0,0,0,0,0,0,0,0,0,0,0,0,0,0,0,0,0,0,0,0,0,0,0,0,0,0,0,0,0,0,0,0,0,0,0,0,0,0,0,0,0,0,0,0,0,0,0,0,0,0,0,0,0,0,0,0,0,0,0,0,0,0,0,0 } };
const TfLiteAffineQuantization quant19 = { (TfLiteFloatArray*)&quant19_scale, (TfLiteIntArray*)&quant19_zero, 0 };
const MODEL_SECTION(EI_MODEL_SECTION) ALIGN(16) int32_t tensor_data20[16] = { -29675, 7687, 6838, -9193, 4614, -13749, -12456, -43499, 14684, 40028, 32761, -11277, -10713, -23875, 45196, -38830, };
const TfArray<1, int> tensor_dimension20 = { 1, { 16 } };
const TfArray<16, float> quant20_scale = { 16, { 0.00061858975095674396, 0.00068432535044848919, 0.0010877893073484302, 0.00090271350927650928, 0.00060408958233892918, 0.0010249799815937877, 0.00072175642708316445, 0.00049846613546833396, 0.00067987304646521807, 0.00049529696116223931, 0.00053060671780258417, 0.00045573117677122355, 0.00063288141973316669, 0.0012141603510826826, 0.00036425673170015216, 0.0005755438469350338, } };
const TfArray<16, int> quant20_zero = { 16, { 0,0,0,0,0,0,0,0,0,0,0,0,0,0,0,0 } };
const TfLiteAffineQuantization quant20 = { (TfLiteFloatArray*)&quant20_scale, (TfLiteIntArray*)&quant20_zero, 0 };
const MODEL_SECTION(EI_MODEL_SECTION) ALIGN(16) int8_t tensor_data21[16*1*1*48] = { 
  /* [0][0][][] */ -7,8,-24,-7,3,-13,-5,90,-59,8,35,-14,5,-15,14,13,-2,-17,-18,-11,57,-8,5,124,-22,67,7,-16,1,-5,44,-15,-23,42,32,-42,16,45,17,-38,-102,-25,30,45,21,16,-127,-36, 
  /* [1][0][][] */ -39,-21,18,0,-15,8,-9,50,-63,-17,3,-54,-10,-20,6,-22,-42,127,-23,9,-2,-2,-19,-17,44,-51,13,15,-28,-107,-31,6,-25,-1,27,-9,17,-50,-1,15,-25,-22,118,11,-8,-4,22,-4, 
  /* [2][0][][] */ -21,-2,-3,-35,-1,-57,-3,-24,0,9,26,19,21,15,-14,-4,-8,-13,-25,-21,10,5,13,-127,-13,56,-11,-2,7,-20,-13,0,-6,47,13,0,16,9,17,1,-46,-1,-13,4,-7,0,25,15, 
  /* [3][0][][] */ 2,37,4,-37,-6,1,0,-3,-28,-1,-5,46,-127,8,4,3,17,8,-24,-16,-32,-2,-2,19,-12,-9,12,30,-18,29,14,17,7,-1,11,18,-13,28,43,15,13,9,17,-33,26,-2,-5,10, 
  /* [4][0][][] */ 25,-34,24,1,8,39,33,-25,-37,0,1,-29,10,7,7,20,33,-4,-76,6,-9,9,26,56,0,-20,9,37,9,-91,8,2,16,-45,34,-127,22,27,-7,32,-28,20,7,-23,-22,-14,23,3, 
  /* [5][0][][] */ 31,4,-3,55,-2,2,5,32,-1,0,29,12,-7,49,2,-5,2,10,27,9,17,-4,18,-22,2,-45,6,-10,1,-1,-12,6,74,-127,7,26,-10,1,21,19,-81,59,8,-5,-5,11,-106,-21, 
  /* [6][0][][] */ 28,8,8,2,-21,0,-1,-14,-6,-3,-1,1,-31,7,0,-3,-6,-22,127,19,2,20,26,-39,2,0,31,-6,-21,6,-7,1,5,-14,37,-44,1,-37,78,27,-3,-6,-5,4,-4,-9,4,-12, 
  /* [7][0][][] */ -67,-31,12,24,-9,105,-1,36,-16,32,14,127,102,-40,-26,3,27,-15,17,-26,-16,-19,-7,61,0,-68,-68,-21,-7,-26,-5,-5,12,-8,-36,-8,12,-65,100,22,16,50,-80,-49,12,10,22,-2, 
  /* [8][0][][] */ -47,-53,25,9,-15,7,1,9,1,-89,1,42,48,-2,8,-9,4,47,-5,9,-24,18,23,-22,12,-30,10,30,9,109,-32,24,-17,24,-1,-123,-113,63,13,35,21,-21,127,0,14,47,34,33, 
  /* [9][0][][] */ -3,25,14,24,4,-53,-38,-32,80,-64,32,45,-68,5,18,0,6,39,-56,-15,56,4,-12,-32,-21,-2,65,-42,6,26,11,8,-3,16,107,-103,-17,-125,-127,24,-40,13,84,15,27,-12,-1,-29, 
  /* [10][0][][] */ -37,-22,-3,-121,68,108,11,1,11,22,14,8,53,-54,-31,25,55,-62,77,-21,35,-16,62,46,-31,-127,5,-49,55,14,21,-50,-37,-70,26,-10,28,-63,9,-15,-26,-61,-28,22,-3,26,25,-36, 
  /* [11][0][][] */ -25,58,33,64,17,-48,-75,-51,17,51,6,5,-21,70,23,-94,37,28,-15,-16,-75,-88,37,-22,14,-58,35,4,59,-32,5,-91,73,-45,-25,-127,88,20,24,-92,-26,87,107,-102,-35,-44,58,55, 
  /* [12][0][][] */ 127,1,-37,19,21,10,-7,103,6,-2,-65,-19,-10,28,-14,-7,-28,-6,8,7,13,2,-9,30,4,36,2,8,-10,10,8,7,-5,-55,-11,24,-3,-12,-16,-17,-5,-79,-8,-124,-35,-6,62,-20, 
  /* [13][0][][] */ 11,8,-8,6,0,-5,1,-4,2,0,9,24,-13,5,8,8,11,-2,9,1,9,-10,6,-5,-1,4,22,127,0,3,8,4,10,1,-32,16,5,-3,11,-11,-9,4,6,-1,7,-8,-6,-11, 
  /* [14][0][][] */ 64,-39,32,-51,67,10,38,-120,-41,-80,-19,127,-66,-1,62,26,22,24,-38,84,33,49,71,-2,41,65,-46,-125,37,-49,49,41,-27,79,-112,-38,-50,9,73,1,-22,5,71,-30,-15,-9,20,-44, 
  /* [15][0][][] */ -23,-49,-68,-16,20,38,81,-54,6,-4,5,-15,57,42,-101,67,59,29,82,-56,-79,-6,43,-31,-59,19,30,60,68,61,27,-57,21,44,100,85,-37,-102,-4,-8,69,57,127,-56,11,-9,3,83, 
};
const TfArray<4, int> tensor_dimension21 = { 4, { 16,1,1,48 } };
const TfArray<16, float> quant21_scale = { 16, { 0.026290064677596092, 0.029083827510476112, 0.046231042593717575, 0.038365323096513748, 0.025673806667327881, 0.043561648577451706, 0.03067464753985405, 0.021184811368584633, 0.028894603252410889, 0.021050121635198593, 0.022550785914063454, 0.019368574023246765, 0.026897460222244263, 0.051601815968751907, 0.015480911359190941, 0.024460611864924431, } };
const TfArray<16, int> quant21_zero = { 16, { 0,0,0,0,0,0,0,0,0,0,0,0,0,0,0,0 } };
const TfLiteAffineQuantization quant21 = { (TfLiteFloatArray*)&quant21_scale, (TfLiteIntArray*)&quant21_zero, 0 };
